2.564878761768341064e-01 -1.262247711420059204e-01 -2.926779985427856445e-01 4.548133909702301025e-01 -2.905022166669368744e-02 2.295619249343872070e-01
-6.521077454090118408e-02 8.340869098901748657e-03 1.312323510646820068e-01 -6.772618740797042847e-03 -1.086186245083808899e-01 -1.120115593075752258e-01
-2.200434505939483643e-01 1.924405097961425781e-01 8.628944307565689087e-02 2.949714958667755127e-01 -3.537564873695373535e-01 1.303569674491882324e-01
1.236620768904685974e-01 -1.093270853161811829e-01 1.274791657924652100e-01 1.137378513813018799e-01 -1.423282474279403687e-01 -4.929685220122337341e-02
-3.667772114276885986e-01 2.631967961788177490e-01 -1.063190698623657227e-01 1.712110340595245361e-01 2.807303071022033691e-01 -1.814843267202377319e-01
4.803443849086761475e-01 -4.565224647521972656e-01 -2.239843457937240601e-01 2.294758111238479614e-01 4.210627079010009766e-01 -3.204606473445892334e-01
9.970087558031082153e-02 -1.002899110317230225e-01 -3.856565058231353760e-01 7.035064697265625000e-01 5.493189692497253418e-01 -5.904459357261657715e-01
5.748445391654968262e-01 -5.195983052253723145e-01 -8.854021877050399780e-02 4.007341563701629639e-01 1.209832653403282166e-01 -4.493770897388458252e-01
2.977889776229858398e-01 -2.977434992790222168e-01 4.160512611269950867e-02 -9.198158979415893555e-02 1.078827306628227234e-01 -1.288271546363830566e-01
3.533914089202880859e-01 -2.565412819385528564e-01 3.688822686672210693e-02 8.095907419919967651e-02 2.491080760955810547e-02 1.044231355190277100e-01
7.749197632074356079e-02 -7.322715222835540771e-02 4.511500895023345947e-02 2.409112900495529175e-01 1.457260102033615112e-01 -1.556936949491500854e-01
-4.215061664581298828e-02 -4.982317332178354263e-03 -2.338574528694152832e-01 4.647417664527893066e-01 -4.878471605479717255e-03 1.029553189873695374e-01
6.572161912918090820e-01 -5.507671833038330078e-01 -1.571095436811447144e-01 2.444946318864822388e-01 -8.400133997201919556e-02 -4.608075693249702454e-02
5.962817743420600891e-02 -6.746032088994979858e-02 -2.817143918946385384e-03 -2.701132558286190033e-02 3.768269121646881104e-01 -2.020068019628524780e-01
-3.734578788280487061e-01 3.662427067756652832e-01 -3.822980821132659912e-01 -1.134865805506706238e-01 4.934723675251007080e-01 -2.016491591930389404e-01
7.546506077051162720e-02 -7.706221938133239746e-02 -3.482486903667449951e-01 1.626605093479156494e-01 3.997539579868316650e-01 -3.219507634639739990e-01
8.344350457191467285e-01 -8.451533913612365723e-01 6.652608513832092285e-02 -7.331740856170654297e-02 -2.002189159393310547e-01 4.910720139741897583e-02
-1.239151507616043091e-01 9.073808789253234863e-02 4.550628829747438431e-03 -3.336426615715026855e-02 1.562349349260330200e-01 -2.101989686489105225e-01
2.113665044307708740e-01 -2.502770423889160156e-01 3.869835734367370605e-01 -3.278031945228576660e-01 -2.072035074234008789e-01 4.267835989594459534e-03
1.861557811498641968e-01 -2.216855138540267944e-01 1.815608590841293335e-01 -6.484474241733551025e-02 1.385549157857894897e-01 -2.592002451419830322e-01
3.240169286727905273e-01 -2.561085820198059082e-01 3.224887549877166748e-01 -1.693987101316452026e-01 -3.117018043994903564e-01 -1.013375446200370789e-01
5.686565488576889038e-02 7.310309447348117828e-03 8.690028637647628784e-02 4.414237104356288910e-03 1.321074515581130981e-01 -1.467117816209793091e-01
1.228467300534248352e-01 -6.736770272254943848e-02 -4.446141719818115234e-01 -1.815900504589080811e-01 2.566445171833038330e-01 3.688837885856628418e-01
-4.468715190887451172e-01 4.479423463344573975e-01 3.512289524078369141e-01 1.787362247705459595e-01 -4.505511224269866943e-01 5.381881073117256165e-02
2.115742564201354980e-01 -9.361992776393890381e-02 3.399050831794738770e-01 -3.789352625608444214e-02 2.790201604366302490e-01 -7.397750020027160645e-01
-2.488040179014205933e-01 2.491417527198791504e-01 3.269170522689819336e-01 -4.898284673690795898e-01 -3.448114991188049316e-01 5.217486619949340820e-01
8.965027332305908203e-02 -5.272192507982254028e-02 4.226309359073638916e-01 1.082865372300148010e-01 -9.864701032638549805e-01 3.498117327690124512e-01
2.456764131784439087e-01 -1.609013825654983521e-01 -7.967204600572586060e-02 -1.404909789562225342e-01 1.314258128404617310e-01 1.104577854275703430e-01
1.109024062752723694e-01 -1.262270510196685791e-01 -2.259888648986816406e-01 -6.913033127784729004e-01 2.320435494184494019e-01 4.571948349475860596e-01
2.354228794574737549e-01 -1.687009930610656738e-01 3.675933182239532471e-01 -1.124764561653137207e+00 -2.146490365266799927e-01 3.524982631206512451e-01
1.483536362648010254e-01 -1.613639444112777710e-01 2.356471419334411621e-01 1.985032558441162109e-01 -2.737711369991302490e-01 -2.088892757892608643e-01
2.205883562564849854e-01 -2.625350654125213623e-01 4.766496419906616211e-01 -8.601498603820800781e-01 5.364654958248138428e-02 -2.761811614036560059e-01
-3.909198939800262451e-01 2.451844513416290283e-01 5.205195397138595581e-02 7.990562915802001953e-01 -8.460311293601989746e-01 4.708457887172698975e-01
3.971753418445587158e-01 -3.671705424785614014e-01 -8.195941895246505737e-02 2.421759665012359619e-01 1.913200714625418186e-03 7.151743862777948380e-03
1.161928698420524597e-01 -9.531117393635213375e-04 1.469247639179229736e-01 1.156558915972709656e-01 -1.237178221344947815e-01 -3.498137295246124268e-01
3.070856034755706787e-01 -2.947520613670349121e-01 -3.898676037788391113e-01 2.793434858322143555e-01 1.125867292284965515e-01 1.820285432040691376e-02
8.258237838745117188e-01 -8.783289790153503418e-01 -3.432054221630096436e-01 -3.086535632610321045e-01 2.341435402631759644e-01 1.841426491737365723e-01
-8.620285242795944214e-02 5.428920686244964600e-02 -4.728938937187194824e-01 -2.166821956634521484e-01 1.605035215616226196e-01 6.435387730598449707e-01
3.165973722934722900e-01 -3.509643077850341797e-01 3.038571588695049286e-02 -2.116956859827041626e-01 -2.748239636421203613e-01 3.396636545658111572e-01
5.943455100059509277e-01 -5.869871973991394043e-01 -1.714752912521362305e-01 2.955516874790191650e-01 2.948576509952545166e-01 -3.209290504455566406e-01
-9.085264056921005249e-02 -1.523779239505529404e-02 5.773757100105285645e-01 -3.360501676797866821e-02 -1.827495247125625610e-01 -3.510062098503112793e-01
2.553659677505493164e-01 -2.638312280178070068e-01 -8.696866780519485474e-02 2.246618717908859253e-01 1.296741217374801636e-01 -1.655031740665435791e-02
-1.388487815856933594e-01 2.280540615320205688e-01 -1.767490953207015991e-01 1.083602383732795715e-01 -1.682288497686386108e-01 4.151042401790618896e-01
-4.134898781776428223e-01 4.915149807929992676e-01 4.109478294849395752e-01 -7.658457756042480469e-01 1.102865636348724365e-01 -9.307119250297546387e-02
-4.756671488285064697e-01 4.291003644466400146e-01 1.971297711133956909e-01 -2.872431576251983643e-01 -8.017139136791229248e-02 -1.238244175910949707e-01
-7.768442481756210327e-02 -1.943807676434516907e-02 -6.812771558761596680e-01 9.516096115112304688e-02 9.591159969568252563e-02 7.120432257652282715e-01
-4.126352667808532715e-01 4.168354868888854980e-01 6.365423798561096191e-01 -1.084329783916473389e-01 -5.256624817848205566e-01 -1.321195363998413086e-01
-1.177692040801048279e-01 3.315436840057373047e-02 -3.510404229164123535e-01 3.377531766891479492e-01 1.120001599192619324e-01 2.523956298828125000e-01
-1.463799178600311279e-02 -7.497713714838027954e-02 -7.202499359846115112e-02 4.829363524913787842e-01 2.045121192932128906e-01 -3.878346383571624756e-01
2.516419626772403717e-02 -8.632736653089523315e-02 9.069642424583435059e-02 7.311726361513137817e-02 1.843370497226715088e-02 -1.309606134891510010e-01
2.050321698188781738e-01 -1.916192919015884399e-01 -2.957912087440490723e-01 -6.356430649757385254e-01 5.842658281326293945e-01 -3.015990853309631348e-01
9.361352771520614624e-02 -6.870408356189727783e-02 4.821456596255302429e-02 -6.806114315986633301e-01 2.501527369022369385e-01 -2.957034856081008911e-02
-1.151315569877624512e-01 2.006724327802658081e-01 2.512844204902648926e-01 -2.285040020942687988e-01 -9.486749023199081421e-02 -1.110532730817794800e-01
-8.764049410820007324e-02 1.232818588614463806e-01 1.964079290628433228e-01 -2.153577506542205811e-01 -1.135709658265113831e-01 -7.913442701101303101e-02
-3.085956573486328125e-01 3.156575858592987061e-01 -1.039598658680915833e-01 2.822383046150207520e-01 -2.003626227378845215e-01 2.015248388051986694e-01
-2.070382386445999146e-01 3.430221974849700928e-01 3.160293698310852051e-01 5.846558809280395508e-01 -3.032235801219940186e-01 -3.781308829784393311e-01
1.924573034048080444e-01 -2.516519725322723389e-01 2.778197526931762695e-01 -6.511590629816055298e-02 -1.015456542372703552e-01 -2.795267105102539062e-01
-4.758618772029876709e-01 4.768166542053222656e-01 -8.801209740340709686e-03 -1.120622977614402771e-01 8.993078768253326416e-02 3.203167021274566650e-02
-2.273166626691818237e-01 2.727302908897399902e-01 7.796238064765930176e-01 -1.836822330951690674e-01 -3.619253039360046387e-01 -2.546543180942535400e-01
-3.207515478134155273e-01 3.460542261600494385e-01 2.462078034877777100e-01 9.381419420242309570e-02 -3.831582963466644287e-01 2.360116690397262573e-01
-7.050614804029464722e-02 1.754011660814285278e-01 2.878075838088989258e-01 -6.916976720094680786e-02 -1.740911006927490234e-01 -1.236102059483528137e-01
-6.594493389129638672e-01 5.548227429389953613e-01 -9.033020585775375366e-02 -1.209502294659614563e-01 1.267975866794586182e-01 1.848828792572021484e-01
-1.250489354133605957e-01 5.632692202925682068e-02 4.212447404861450195e-01 3.906852006912231445e-02 -2.220933437347412109e-01 -2.504521608352661133e-01
8.571786433458328247e-02 -1.154452562332153320e-01 8.418643474578857422e-02 -2.183262407779693604e-01 -7.335023581981658936e-02 4.631101153790950775e-03
-1.728085577487945557e-01 8.171440660953521729e-02 -1.496885120868682861e-01 5.380871295928955078e-01 3.813064098358154297e-01 -2.918927073478698730e-01
-2.937614321708679199e-01 2.458693981170654297e-01 -2.434471435844898224e-02 -2.387171238660812378e-01 2.405518740415573120e-01 -1.330433487892150879e-01
2.576189339160919189e-01 -3.096988201141357422e-01 -5.885189399123191833e-02 8.010104298591613770e-03 2.836295366287231445e-01 -2.325949519872665405e-01
-4.820976257324218750e-01 4.854096770286560059e-01 7.935975492000579834e-02 -2.286337167024612427e-01 1.111564338207244873e-01 -9.492374211549758911e-02
-1.756376773118972778e-01 1.026733517646789551e-01 -5.348540544509887695e-01 5.489204525947570801e-01 5.733171850442886353e-02 4.236240983009338379e-01
3.382079899311065674e-01 -3.342021405696868896e-01 4.031055569648742676e-01 -2.059438079595565796e-01 -1.931701153516769409e-01 -2.608584463596343994e-01
-2.798818647861480713e-01 3.279765546321868896e-01 3.463527560234069824e-01 -6.682423353195190430e-01 -1.420241147279739380e-01 -6.486383080482482910e-02
1.750970184803009033e-01 -2.862554490566253662e-01 1.144101936370134354e-02 -8.713243007659912109e-01 1.715749502182006836e-01 1.334741413593292236e-01
2.352982759475708008e-02 -1.030888110399246216e-01 -8.927565813064575195e-02 6.551948785781860352e-01 4.165911301970481873e-02 -2.495939880609512329e-01
1.303035113960504532e-02 -4.072526469826698303e-02 -4.198304712772369385e-01 -1.569712311029434204e-01 5.739458203315734863e-01 -4.051755070686340332e-01
3.194240927696228027e-01 -4.094731509685516357e-01 5.057090893387794495e-02 3.357779383659362793e-01 -1.914549469947814941e-01 -2.111632823944091797e-01
-2.091025114059448242e-01 2.067220062017440796e-01 -2.220163196325302124e-01 -5.913790464401245117e-01 9.856944084167480469e-01 -3.649253547191619873e-01
-7.264352589845657349e-02 1.844370514154434204e-01 -2.399892359972000122e-01 -6.134756654500961304e-02 3.264442980289459229e-01 -1.559164673089981079e-01
5.257881805300712585e-02 -7.653501629829406738e-02 -4.641712605953216553e-01 1.185865402221679688e-01 1.583762168884277344e-01 3.365424275398254395e-01
-2.479887455701828003e-01 3.075073063373565674e-01 -6.213483959436416626e-02 -2.433330416679382324e-01 2.213658690452575684e-01 1.775123625993728638e-01
-2.152303047478199005e-02 -4.716200008988380432e-02 -6.015903949737548828e-01 3.425377309322357178e-01 9.909311681985855103e-02 4.992196261882781982e-01
2.353401295840740204e-02 -2.213419228792190552e-02 -5.152646079659461975e-02 -2.075692117214202881e-01 -1.383811384439468384e-01 1.976153552532196045e-01
4.326299428939819336e-01 -4.062077999114990234e-01 5.285804718732833862e-02 -1.371391415596008301e-01 -1.350956261157989502e-01 1.307586133480072021e-01
-2.496387958526611328e-01 2.610356509685516357e-01 -3.779292106628417969e-01 6.619469821453094482e-02 3.399039804935455322e-01 2.803812026977539062e-01
3.721452057361602783e-01 -3.858869969844818115e-01 -7.456973195075988770e-03 1.507045775651931763e-01 8.109942078590393066e-02 -2.489372044801712036e-01
3.788980841636657715e-01 -4.137049317359924316e-01 1.826487779617309570e-01 -2.025678381323814392e-02 -4.770803451538085938e-01 1.030728518962860107e-01
-9.313052296638488770e-01 8.475603461265563965e-01 1.692183762788772583e-01 -3.702290654182434082e-01 1.131765991449356079e-01 -8.251225203275680542e-02
-4.476419389247894287e-01 3.136237263679504395e-01 7.575655579566955566e-01 -6.224896311759948730e-01 -2.847578823566436768e-01 -5.621668100357055664e-01
2.069578468799591064e-01 -1.173600330948829651e-01 4.405697882175445557e-01 -9.858606755733489990e-02 -4.309347867965698242e-01 -1.305882781744003296e-01
2.476761350408196449e-03 -1.472734361886978149e-01 -1.517302691936492920e-01 8.133837580680847168e-02 7.214774191379547119e-02 -2.277516201138496399e-02
7.687870413064956665e-02 4.557342827320098877e-02 2.528840601444244385e-01 -2.792046964168548584e-01 -3.440621495246887207e-01 3.808638080954551697e-02
1.901273131370544434e-01 -4.779548570513725281e-02 4.594867527484893799e-01 5.571076273918151855e-01 1.402961760759353638e-01 -7.322287559509277344e-01
3.654954731464385986e-01 -3.465935587882995605e-01 1.100776344537734985e-01 -1.744369231164455414e-02 -1.434819996356964111e-01 3.433053568005561829e-02
7.068832516670227051e-01 -6.534970402717590332e-01 4.668381065130233765e-02 2.173102051019668579e-01 -4.964252933859825134e-03 -1.009141504764556885e-01
-1.629135757684707642e-02 7.971491664648056030e-02 2.085343301296234131e-01 4.513197019696235657e-02 -2.975033521652221680e-01 -8.804383128881454468e-02
2.639409303665161133e-01 -2.256717383861541748e-01 -1.956787705421447754e-01 -6.665568333119153976e-03 4.203172922134399414e-01 -3.856090009212493896e-01
7.663275301456451416e-02 -6.340538710355758667e-02 -2.641244232654571533e-01 -9.105429649353027344e-01 1.980311125516891479e-01 4.074219763278961182e-01
-1.735179275274276733e-01 2.560273706912994385e-01 -1.236544102430343628e-01 -3.169606029987335205e-01 1.465963423252105713e-01 -1.755542308092117310e-02
4.785846453160047531e-03 4.673792421817779541e-02 -5.871147289872169495e-02 1.779347956180572510e-01 -2.891523540019989014e-01 -5.921096354722976685e-02
1.207748353481292725e-01 3.046364895999431610e-02 2.153749465942382812e-01 -3.517672419548034668e-02 -1.111632063984870911e-01 -1.054220348596572876e-01
5.898481979966163635e-02 -1.509119719266891479e-01 -1.173321247100830078e+00 8.790706396102905273e-01 7.142662405967712402e-01 2.069773524999618530e-01
3.974890410900115967e-01 -3.021785020828247070e-01 -1.181696951389312744e-01 -4.240113496780395508e-01 2.413182854652404785e-01 1.422242373228073120e-01
-2.145512402057647705e-01 2.701961100101470947e-01 -3.728340864181518555e-01 -2.088849097490310669e-01 1.143826544284820557e-02 4.616138637065887451e-01
2.484348118305206299e-01 -2.350047528743743896e-01 8.594394661486148834e-03 6.485747694969177246e-01 -1.423219591379165649e-01 1.394357066601514816e-02
-1.732490360736846924e-01 5.758916586637496948e-02 2.798614501953125000e-01 -3.133694827556610107e-02 -1.256281882524490356e-01 -1.608866155147552490e-01
3.980079591274261475e-01 -2.586525082588195801e-01 6.503231078386306763e-02 -8.401060700416564941e-01 4.940187036991119385e-01 -1.594452112913131714e-01
7.239355146884918213e-02 -2.086565084755420685e-02 2.074148356914520264e-01 3.889306187629699707e-01 -8.326055407524108887e-01 3.381814956665039062e-01
7.041713595390319824e-02 -1.585096418857574463e-01 8.664357662200927734e-02 -8.834254145622253418e-01 2.148047536611557007e-01 1.883725374937057495e-01
-1.450861394405364990e-01 1.408750414848327637e-01 -1.525427103042602539e-01 2.656816970556974411e-03 1.277655661106109619e-01 9.009954333305358887e-02
5.574207901954650879e-01 -5.779621005058288574e-01 7.840342819690704346e-02 -1.392250321805477142e-02 -2.251303941011428833e-01 4.485172778367996216e-02
-1.135674491524696350e-01 2.110254466533660889e-01 -3.316955268383026123e-02 -1.531420797109603882e-01 2.912683188915252686e-01 5.756064131855964661e-02
-7.531259208917617798e-02 1.305114626884460449e-01 3.076584637165069580e-01 -5.064446330070495605e-01 2.629624120891094208e-02 -3.964017033576965332e-01
1.698066145181655884e-01 -2.912012934684753418e-01 1.630383431911468506e-01 -3.526478633284568787e-02 -1.250667423009872437e-01 -5.168338492512702942e-02
1.641718894243240356e-01 -2.584286332130432129e-01 1.687303036451339722e-01 -3.431338965892791748e-01 -9.337834268808364868e-02 -7.262699306011199951e-03
-2.064734101295471191e-01 2.405074536800384521e-01 8.325362205505371094e-02 -5.632271245121955872e-02 1.871397048234939575e-01 -8.560033142566680908e-02
-3.450262844562530518e-01 2.159871906042098999e-01 5.699835717678070068e-02 4.287058413028717041e-01 -3.827842175960540771e-01 3.697598725557327271e-02
-6.254596114158630371e-01 5.987356305122375488e-01 -6.856396794319152832e-02 -4.263856709003448486e-01 2.068658769130706787e-01 4.207722470164299011e-02
-3.153535127639770508e-01 2.853433787822723389e-01 -2.382447570562362671e-01 3.180406689643859863e-01 3.417765721678733826e-02 -3.282934799790382385e-02
4.810824394226074219e-01 -3.854110240936279297e-01 -5.810127034783363342e-02 4.151925444602966309e-01 4.783312976360321045e-01 -5.467982292175292969e-01
3.437683582305908203e-01 -3.339360356330871582e-01 6.752666831016540527e-02 -2.885380685329437256e-01 -2.503949403762817383e-01 1.047433614730834961e-01
-1.770085692405700684e-01 2.085317522287368774e-01 6.687286496162414551e-01 1.953058242797851562e-01 -3.238611519336700439e-01 -4.175269007682800293e-01
-1.392491161823272705e-01 1.155919060111045837e-01 -1.440492570400238037e-01 1.184058375656604767e-02 1.285081058740615845e-01 1.775188744068145752e-01
-1.761731803417205811e-01 1.378375738859176636e-01 4.089609980583190918e-01 -5.514242053031921387e-01 -1.661213785409927368e-01 -1.190212666988372803e-01
-1.740859448909759521e-01 1.598799079656600952e-01 5.046088099479675293e-01 -8.496397137641906738e-01 -1.161586865782737732e-01 -7.522886153310537338e-03
-4.502700641751289368e-02 7.648272067308425903e-02 4.029045999050140381e-02 -2.564969956874847412e-01 1.242812573909759521e-01 1.509436517953872681e-01
7.109268754720687866e-02 -7.416661828756332397e-04 2.338551878929138184e-01 -3.366912901401519775e-01 -2.381924688816070557e-01 7.103928178548812866e-02
5.231959819793701172e-01 -4.644198119640350342e-01 -1.031741276383399963e-01 -3.350569009780883789e-01 4.441361129283905029e-01 -2.732740938663482666e-01
-5.981807112693786621e-01 5.776742100715637207e-01 -7.125305384397506714e-02 -3.939511999487876892e-02 1.992961391806602478e-02 2.681224048137664795e-01
2.760956883430480957e-01 -2.750416398048400879e-01 -3.491371273994445801e-01 -6.109902858734130859e-01 5.347931385040283203e-01 5.686230212450027466e-02
