4.039853811264038086e-01 -3.110285997390747070e-01 -2.074015587568283081e-01 7.418039441108703613e-01 -4.278256297111511230e-01 -5.275266990065574646e-02
-2.920761704444885254e-01 4.164805114269256592e-01 -1.758680939674377441e-01 4.974016547203063965e-01 6.969403028488159180e-01 -9.378079175949096680e-01
6.048298478126525879e-01 -6.191990375518798828e-01 1.183996558189392090e+00 2.015058845281600952e-01 -1.150944113731384277e+00 -7.283261418342590332e-01
1.241887092590332031e+00 -1.241620540618896484e+00 5.877670049667358398e-01 -1.117118239402770996e+00 -1.039466023445129395e+00 8.063313961029052734e-01
4.744822159409523010e-02 1.013556644320487976e-01 1.015788674354553223e+00 -6.227910518646240234e-01 -7.927762269973754883e-01 1.391905397176742554e-01
-5.081052780151367188e-01 4.889058768749237061e-01 7.817905396223068237e-02 6.223695874214172363e-01 1.295343488454818726e-01 -5.172405838966369629e-01
-4.278270602226257324e-01 4.934424161911010742e-01 -4.830366075038909912e-01 -2.864532545208930969e-02 3.900653421878814697e-01 2.569749951362609863e-01
-6.743079423904418945e-01 5.074660778045654297e-01 7.387567758560180664e-01 4.104802906513214111e-01 3.171189725399017334e-01 -9.979484081268310547e-01
3.469969034194946289e-01 -5.751536488533020020e-01 -5.905821323394775391e-01 5.665550231933593750e-01 5.088226795196533203e-01 -3.914741277694702148e-01
-1.485358238220214844e+00 1.425888061523437500e+00 1.193288207054138184e+00 2.987942695617675781e-01 -1.348226785659790039e+00 2.747427821159362793e-01
-7.842304110527038574e-01 7.872594594955444336e-01 7.246048450469970703e-01 -6.145827174186706543e-01 -4.156454503536224365e-01 -2.594240903854370117e-01
4.173428714275360107e-01 -3.030434846878051758e-01 -1.206882476806640625e+00 -9.218811988830566406e-01 7.908738255500793457e-01 5.437825322151184082e-01
-4.978869259357452393e-01 4.695108532905578613e-01 -1.004017949104309082e+00 2.575794048607349396e-02 -3.782980889081954956e-02 6.555022597312927246e-01
2.291859686374664307e-02 8.217886090278625488e-02 -7.829291373491287231e-02 5.387508273124694824e-01 7.855367660522460938e-01 -1.184901714324951172e+00
-2.594251334667205811e-01 5.101944133639335632e-02 6.663725376129150391e-01 1.601797342300415039e-01 -4.581613838672637939e-01 5.822056904435157776e-02
-3.012427687644958496e-01 3.124093413352966309e-01 1.053512930870056152e+00 -6.357996463775634766e-01 -3.182721436023712158e-01 -6.820456981658935547e-01
-6.398990154266357422e-01 6.094990372657775879e-01 2.508174777030944824e-01 -3.878990709781646729e-01 1.693399250507354736e-02 -1.466684937477111816e-01
-2.591926753520965576e-01 3.978012800216674805e-01 6.418987512588500977e-01 1.310425251722335815e-01 -2.931272387504577637e-01 -3.848577141761779785e-01
5.358417518436908722e-03 7.445845752954483032e-02 2.327388525009155273e+00 -1.678254127502441406e+00 -8.450502902269363403e-02 -1.547018051147460938e+00
-3.855170011520385742e-01 4.398300945758819580e-01 3.525229692459106445e-01 3.500976562500000000e-01 -2.361808717250823975e-01 -3.606441020965576172e-01
-1.092419028282165527e-02 -1.550492495298385620e-01 -2.700293660163879395e-01 9.948932379484176636e-02 6.886801123619079590e-01 -2.170329838991165161e-01
-5.279873013496398926e-01 4.034808874130249023e-01 -6.967498362064361572e-02 7.639438509941101074e-01 -7.195013761520385742e-02 -2.854452133178710938e-01
1.444738358259201050e-01 -2.313242256641387939e-01 -1.028654932975769043e+00 -2.591090835630893707e-02 3.680875301361083984e-01 1.322975635528564453e+00
1.194545179605484009e-01 -2.195696979761123657e-01 -9.138351082801818848e-01 -2.803649306297302246e-01 -3.927120864391326904e-01 1.363142013549804688e+00
-4.134379923343658447e-01 4.107385575771331787e-01 -3.897819295525550842e-02 3.001095354557037354e-01 -8.986417651176452637e-01 6.998125314712524414e-01
-1.670755296945571899e-01 3.625705242156982422e-01 1.103152036666870117e+00 1.057983517646789551e+00 -3.121639788150787354e-01 -1.107894062995910645e+00
2.930219769477844238e-01 -3.198830783367156982e-01 1.831411197781562805e-02 -1.979757100343704224e-01 3.308314085006713867e-01 -2.191772013902664185e-01
-9.762375950813293457e-01 9.517771005630493164e-01 4.345202147960662842e-01 -4.174963533878326416e-01 -1.888821572065353394e-01 -2.321507781744003296e-01
-6.716671586036682129e-01 6.939051151275634766e-01 9.077336639165878296e-02 -7.838315516710281372e-02 -3.301395177841186523e-01 3.157926797866821289e-01
3.724584877490997314e-01 -4.754921495914459229e-01 -2.385371476411819458e-01 -3.160641789436340332e-01 6.391193866729736328e-01 -4.710696339607238770e-01
-9.881339035928249359e-03 -9.148349612951278687e-02 2.730411589145660400e-01 -3.881475627422332764e-01 -2.556045353412628174e-01 8.095683902502059937e-02
1.584447026252746582e-01 -1.712659150362014771e-01 -2.625625133514404297e-01 7.701696157455444336e-01 1.818774342536926270e+00 -2.018771886825561523e+00
-1.083269938826560974e-01 9.315484017133712769e-02 -2.503110766410827637e-01 1.705823689699172974e-01 2.820780277252197266e-01 -2.923270165920257568e-01
-4.053214490413665771e-01 2.996674776077270508e-01 4.091174602508544922e-01 -6.092162132263183594e-01 -4.748170077800750732e-01 6.318134665489196777e-01
-3.527897596359252930e-01 1.965144872665405273e-01 -5.934423208236694336e-01 1.822817444801330566e+00 1.151945069432258606e-01 -7.490159273147583008e-01
3.114091791212558746e-02 -1.113625839352607727e-01 6.178718209266662598e-01 -1.493379473686218262e+00 7.316080927848815918e-01 -2.559551000595092773e-01
3.180795582011342049e-03 1.329767554998397827e-01 1.214910984039306641e+00 -1.030801653861999512e+00 -1.725304573774337769e-01 -1.256832480430603027e+00
1.337854623794555664e+00 -1.242354035377502441e+00 5.234999060630798340e-01 4.056967496871948242e-01 -1.316595435142517090e+00 7.553240656852722168e-01
7.617779076099395752e-02 -5.903669074177742004e-02 5.031070709228515625e-01 6.685465574264526367e-01 -6.543313860893249512e-01 -1.767661869525909424e-01
5.198722481727600098e-01 -5.088062882423400879e-01 -3.567333221435546875e-01 4.499277174472808838e-01 -1.847890168428421021e-01 5.981237292289733887e-01
-3.301709294319152832e-01 2.474674135446548462e-01 -2.083873897790908813e-01 -6.992200016975402832e-01 1.110160589218139648e+00 -2.672008275985717773e-01
-1.196834683418273926e+00 1.161726951599121094e+00 6.822072863578796387e-01 -1.045116037130355835e-01 -6.742380857467651367e-01 8.018183708190917969e-02
2.930212393403053284e-02 8.308245986700057983e-02 1.343898653984069824e+00 -2.221768140792846680e+00 4.071580469608306885e-01 2.355540543794631958e-01
-2.805237293243408203e+00 2.774924993515014648e+00 2.370884269475936890e-02 -7.038452625274658203e-01 2.253265678882598877e-01 3.402487635612487793e-01
6.018873453140258789e-01 -7.322154641151428223e-01 4.182773232460021973e-01 -1.058052480220794678e-01 -1.047472596168518066e+00 4.949564337730407715e-01
-9.331492781639099121e-01 1.007171511650085449e+00 -8.774185180664062500e-02 7.220133394002914429e-02 2.256352156400680542e-01 -3.494493663311004639e-01
7.963336110115051270e-01 -8.883498907089233398e-01 -2.589224278926849365e-01 7.359119653701782227e-01 4.362376034259796143e-01 -7.603607177734375000e-01
7.903908938169479370e-02 6.756318360567092896e-02 4.758538007736206055e-01 -5.791239738464355469e-01 -3.943508490920066833e-03 -2.554268538951873779e-01
1.923146098852157593e-01 -2.946664392948150635e-01 -3.463319838047027588e-01 2.011339962482452393e-01 -5.251617170870304108e-03 2.378279566764831543e-01
-1.049372926354408264e-01 1.221961826086044312e-01 4.521165490150451660e-01 6.122018694877624512e-01 -4.617772996425628662e-01 -7.702875137329101562e-01
8.528271317481994629e-02 -2.292705327272415161e-01 8.448723554611206055e-01 -4.889071881771087646e-01 -6.333081722259521484e-01 1.259251590818166733e-02
2.948437035083770752e-01 -2.136437892913818359e-01 8.453310281038284302e-02 1.174321696162223816e-01 -6.918898820877075195e-01 2.891828417778015137e-01
1.191296353936195374e-01 -1.113629788160324097e-01 6.079509258270263672e-01 -8.333124965429306030e-02 -6.857352256774902344e-01 -2.612324655055999756e-01
9.270169585943222046e-02 -1.777540892362594604e-01 1.497999727725982666e-01 -2.250158637762069702e-01 6.708001494407653809e-01 -7.947436571121215820e-01
4.178382456302642822e-01 -3.314886987209320068e-01 -5.547563433647155762e-01 -2.283832579851150513e-01 2.426996976137161255e-01 1.909120529890060425e-01
-4.924277961254119873e-01 4.781623482704162598e-01 1.326080709695816040e-01 2.515270933508872986e-02 2.739268839359283447e-01 -3.371371924877166748e-01
2.512144148349761963e-01 -4.039777219295501709e-01 -2.180747501552104950e-02 -2.643928825855255127e-01 -4.613494127988815308e-02 3.313826024532318115e-01
7.779911160469055176e-01 -7.014411687850952148e-01 -4.266850650310516357e-02 -3.466221988201141357e-01 8.516806364059448242e-01 -8.263264298439025879e-01
1.127437353134155273e+00 -1.091845631599426270e+00 -5.106332153081893921e-02 2.746568620204925537e-01 -4.082551002502441406e-01 -3.349392861127853394e-02
6.045447587966918945e-01 -5.748028159141540527e-01 1.003123044967651367e+00 -1.041860818862915039e+00 -3.801065683364868164e-01 -1.942737847566604614e-01
2.265143394470214844e-01 -2.808108329772949219e-01 -6.676781773567199707e-01 7.840247750282287598e-01 2.005433589220046997e-01 1.144640147686004639e-01
-2.823398709297180176e-01 6.706132739782333374e-02 -4.058426618576049805e-01 -3.290317952632904053e-01 5.162020325660705566e-01 7.936085462570190430e-01
7.762521505355834961e-01 -8.651111721992492676e-01 2.497458830475807190e-02 3.897530436515808105e-01 -8.548189401626586914e-01 1.521538943052291870e-01
-1.281436625868082047e-02 1.773526072502136230e-01 4.637476503849029541e-01 -1.422776818275451660e+00 1.044274091720581055e+00 -4.318102598190307617e-01
