static const double fc_bias[6]={3.394004702568054199e-01,-2.573348283767700195e-01,4.460332393646240234e-01,-4.324584901332855225e-01,-2.645699381828308105e-01,-1.073523387312889099e-01,};
static const double fc_weight[64][6]={{4.039853811264038086e-01,-3.110285997390747070e-01,-2.074015587568283081e-01,7.418039441108703613e-01,-4.278256297111511230e-01,-5.275266990065574646e-02,},{-2.920761704444885254e-01,4.164805114269256592e-01,-1.758680939674377441e-01,4.974016547203063965e-01,6.969403028488159180e-01,-9.378079175949096680e-01,},{6.048298478126525879e-01,-6.191990375518798828e-01,1.183996558189392090e+00,2.015058845281600952e-01,-1.150944113731384277e+00,-7.283261418342590332e-01,},{1.241887092590332031e+00,-1.241620540618896484e+00,5.877670049667358398e-01,-1.117118239402770996e+00,-1.039466023445129395e+00,8.063313961029052734e-01,},{4.744822159409523010e-02,1.013556644320487976e-01,1.015788674354553223e+00,-6.227910518646240234e-01,-7.927762269973754883e-01,1.391905397176742554e-01,},{-5.081052780151367188e-01,4.889058768749237061e-01,7.817905396223068237e-02,6.223695874214172363e-01,1.295343488454818726e-01,-5.172405838966369629e-01,},{-4.278270602226257324e-01,4.934424161911010742e-01,-4.830366075038909912e-01,-2.864532545208930969e-02,3.900653421878814697e-01,2.569749951362609863e-01,},{-6.743079423904418945e-01,5.074660778045654297e-01,7.387567758560180664e-01,4.104802906513214111e-01,3.171189725399017334e-01,-9.979484081268310547e-01,},{3.469969034194946289e-01,-5.751536488533020020e-01,-5.905821323394775391e-01,5.665550231933593750e-01,5.088226795196533203e-01,-3.914741277694702148e-01,},{-1.485358238220214844e+00,1.425888061523437500e+00,1.193288207054138184e+00,2.987942695617675781e-01,-1.348226785659790039e+00,2.747427821159362793e-01,},{-7.842304110527038574e-01,7.872594594955444336e-01,7.246048450469970703e-01,-6.145827174186706543e-01,-4.156454503536224365e-01,-2.594240903854370117e-01,},{4.173428714275360107e-01,-3.030434846878051758e-01,-1.206882476806640625e+00,-9.218811988830566406e-01,7.908738255500793457e-01,5.437825322151184082e-01,},{-4.978869259357452393e-01,4.695108532905578613e-01,-1.004017949104309082e+00,2.575794048607349396e-02,-3.782980889081954956e-02,6.555022597312927246e-01,},{2.291859686374664307e-02,8.217886090278625488e-02,-7.829291373491287231e-02,5.387508273124694824e-01,7.855367660522460938e-01,-1.184901714324951172e+00,},{-2.594251334667205811e-01,5.101944133639335632e-02,6.663725376129150391e-01,1.601797342300415039e-01,-4.581613838672637939e-01,5.822056904435157776e-02,},{-3.012427687644958496e-01,3.124093413352966309e-01,1.053512930870056152e+00,-6.357996463775634766e-01,-3.182721436023712158e-01,-6.820456981658935547e-01,},{-6.398990154266357422e-01,6.094990372657775879e-01,2.508174777030944824e-01,-3.878990709781646729e-01,1.693399250507354736e-02,-1.466684937477111816e-01,},{-2.591926753520965576e-01,3.978012800216674805e-01,6.418987512588500977e-01,1.310425251722335815e-01,-2.931272387504577637e-01,-3.848577141761779785e-01,},{5.358417518436908722e-03,7.445845752954483032e-02,2.327388525009155273e+00,-1.678254127502441406e+00,-8.450502902269363403e-02,-1.547018051147460938e+00,},{-3.855170011520385742e-01,4.398300945758819580e-01,3.525229692459106445e-01,3.500976562500000000e-01,-2.361808717250823975e-01,-3.606441020965576172e-01,},{-1.092419028282165527e-02,-1.550492495298385620e-01,-2.700293660163879395e-01,9.948932379484176636e-02,6.886801123619079590e-01,-2.170329838991165161e-01,},{-5.279873013496398926e-01,4.034808874130249023e-01,-6.967498362064361572e-02,7.639438509941101074e-01,-7.195013761520385742e-02,-2.854452133178710938e-01,},{1.444738358259201050e-01,-2.313242256641387939e-01,-1.028654932975769043e+00,-2.591090835630893707e-02,3.680875301361083984e-01,1.322975635528564453e+00,},{1.194545179605484009e-01,-2.195696979761123657e-01,-9.138351082801818848e-01,-2.803649306297302246e-01,-3.927120864391326904e-01,1.363142013549804688e+00,},{-4.134379923343658447e-01,4.107385575771331787e-01,-3.897819295525550842e-02,3.001095354557037354e-01,-8.986417651176452637e-01,6.998125314712524414e-01,},{-1.670755296945571899e-01,3.625705242156982422e-01,1.103152036666870117e+00,1.057983517646789551e+00,-3.121639788150787354e-01,-1.107894062995910645e+00,},{2.930219769477844238e-01,-3.198830783367156982e-01,1.831411197781562805e-02,-1.979757100343704224e-01,3.308314085006713867e-01,-2.191772013902664185e-01,},{-9.762375950813293457e-01,9.517771005630493164e-01,4.345202147960662842e-01,-4.174963533878326416e-01,-1.888821572065353394e-01,-2.321507781744003296e-01,},{-6.716671586036682129e-01,6.939051151275634766e-01,9.077336639165878296e-02,-7.838315516710281372e-02,-3.301395177841186523e-01,3.157926797866821289e-01,},{3.724584877490997314e-01,-4.754921495914459229e-01,-2.385371476411819458e-01,-3.160641789436340332e-01,6.391193866729736328e-01,-4.710696339607238770e-01,},{-9.881339035928249359e-03,-9.148349612951278687e-02,2.730411589145660400e-01,-3.881475627422332764e-01,-2.556045353412628174e-01,8.095683902502059937e-02,},{1.584447026252746582e-01,-1.712659150362014771e-01,-2.625625133514404297e-01,7.701696157455444336e-01,1.818774342536926270e+00,-2.018771886825561523e+00,},{-1.083269938826560974e-01,9.315484017133712769e-02,-2.503110766410827637e-01,1.705823689699172974e-01,2.820780277252197266e-01,-2.923270165920257568e-01,},{-4.053214490413665771e-01,2.996674776077270508e-01,4.091174602508544922e-01,-6.092162132263183594e-01,-4.748170077800750732e-01,6.318134665489196777e-01,},{-3.527897596359252930e-01,1.965144872665405273e-01,-5.934423208236694336e-01,1.822817444801330566e+00,1.151945069432258606e-01,-7.490159273147583008e-01,},{3.114091791212558746e-02,-1.113625839352607727e-01,6.178718209266662598e-01,-1.493379473686218262e+00,7.316080927848815918e-01,-2.559551000595092773e-01,},{3.180795582011342049e-03,1.329767554998397827e-01,1.214910984039306641e+00,-1.030801653861999512e+00,-1.725304573774337769e-01,-1.256832480430603027e+00,},{1.337854623794555664e+00,-1.242354035377502441e+00,5.234999060630798340e-01,4.056967496871948242e-01,-1.316595435142517090e+00,7.553240656852722168e-01,},{7.617779076099395752e-02,-5.903669074177742004e-02,5.031070709228515625e-01,6.685465574264526367e-01,-6.543313860893249512e-01,-1.767661869525909424e-01,},{5.198722481727600098e-01,-5.088062882423400879e-01,-3.567333221435546875e-01,4.499277174472808838e-01,-1.847890168428421021e-01,5.981237292289733887e-01,},{-3.301709294319152832e-01,2.474674135446548462e-01,-2.083873897790908813e-01,-6.992200016975402832e-01,1.110160589218139648e+00,-2.672008275985717773e-01,},{-1.196834683418273926e+00,1.161726951599121094e+00,6.822072863578796387e-01,-1.045116037130355835e-01,-6.742380857467651367e-01,8.018183708190917969e-02,},{2.930212393403053284e-02,8.308245986700057983e-02,1.343898653984069824e+00,-2.221768140792846680e+00,4.071580469608306885e-01,2.355540543794631958e-01,},{-2.805237293243408203e+00,2.774924993515014648e+00,2.370884269475936890e-02,-7.038452625274658203e-01,2.253265678882598877e-01,3.402487635612487793e-01,},{6.018873453140258789e-01,-7.322154641151428223e-01,4.182773232460021973e-01,-1.058052480220794678e-01,-1.047472596168518066e+00,4.949564337730407715e-01,},{-9.331492781639099121e-01,1.007171511650085449e+00,-8.774185180664062500e-02,7.220133394002914429e-02,2.256352156400680542e-01,-3.494493663311004639e-01,},{7.963336110115051270e-01,-8.883498907089233398e-01,-2.589224278926849365e-01,7.359119653701782227e-01,4.362376034259796143e-01,-7.603607177734375000e-01,},{7.903908938169479370e-02,6.756318360567092896e-02,4.758538007736206055e-01,-5.791239738464355469e-01,-3.943508490920066833e-03,-2.554268538951873779e-01,},{1.923146098852157593e-01,-2.946664392948150635e-01,-3.463319838047027588e-01,2.011339962482452393e-01,-5.251617170870304108e-03,2.378279566764831543e-01,},{-1.049372926354408264e-01,1.221961826086044312e-01,4.521165490150451660e-01,6.122018694877624512e-01,-4.617772996425628662e-01,-7.702875137329101562e-01,},{8.528271317481994629e-02,-2.292705327272415161e-01,8.448723554611206055e-01,-4.889071881771087646e-01,-6.333081722259521484e-01,1.259251590818166733e-02,},{2.948437035083770752e-01,-2.136437892913818359e-01,8.453310281038284302e-02,1.174321696162223816e-01,-6.918898820877075195e-01,2.891828417778015137e-01,},{1.191296353936195374e-01,-1.113629788160324097e-01,6.079509258270263672e-01,-8.333124965429306030e-02,-6.857352256774902344e-01,-2.612324655055999756e-01,},{9.270169585943222046e-02,-1.777540892362594604e-01,1.497999727725982666e-01,-2.250158637762069702e-01,6.708001494407653809e-01,-7.947436571121215820e-01,},{4.178382456302642822e-01,-3.314886987209320068e-01,-5.547563433647155762e-01,-2.283832579851150513e-01,2.426996976137161255e-01,1.909120529890060425e-01,},{-4.924277961254119873e-01,4.781623482704162598e-01,1.326080709695816040e-01,2.515270933508872986e-02,2.739268839359283447e-01,-3.371371924877166748e-01,},{2.512144148349761963e-01,-4.039777219295501709e-01,-2.180747501552104950e-02,-2.643928825855255127e-01,-4.613494127988815308e-02,3.313826024532318115e-01,},{7.779911160469055176e-01,-7.014411687850952148e-01,-4.266850650310516357e-02,-3.466221988201141357e-01,8.516806364059448242e-01,-8.263264298439025879e-01,},{1.127437353134155273e+00,-1.091845631599426270e+00,-5.106332153081893921e-02,2.746568620204925537e-01,-4.082551002502441406e-01,-3.349392861127853394e-02,},{6.045447587966918945e-01,-5.748028159141540527e-01,1.003123044967651367e+00,-1.041860818862915039e+00,-3.801065683364868164e-01,-1.942737847566604614e-01,},{2.265143394470214844e-01,-2.808108329772949219e-01,-6.676781773567199707e-01,7.840247750282287598e-01,2.005433589220046997e-01,1.144640147686004639e-01,},{-2.823398709297180176e-01,6.706132739782333374e-02,-4.058426618576049805e-01,-3.290317952632904053e-01,5.162020325660705566e-01,7.936085462570190430e-01,},{7.762521505355834961e-01,-8.651111721992492676e-01,2.497458830475807190e-02,3.897530436515808105e-01,-8.548189401626586914e-01,1.521538943052291870e-01,},{-1.281436625868082047e-02,1.773526072502136230e-01,4.637476503849029541e-01,-1.422776818275451660e+00,1.044274091720581055e+00,-4.318102598190307617e-01,},};
static const double lstm_b_hf[64]={4.718571901321411133e-01,-1.091486513614654541e-01,-2.148385941982269287e-01,-2.649645507335662842e-01,8.556535094976425171e-02,-1.454907953739166260e-01,4.838511943817138672e-01,5.883408710360527039e-02,1.618613004684448242e-01,4.279201030731201172e-01,-2.689190208911895752e-01,-4.576340317726135254e-01,6.294851303100585938e-01,7.914431095123291016e-01,-2.782515287399291992e-01,6.034297347068786621e-01,-2.654948234558105469e-01,1.383179612457752228e-02,1.862321943044662476e-01,1.487094461917877197e-01,2.058891206979751587e-01,8.333411216735839844e-01,3.397455438971519470e-02,-1.535254269838333130e-01,-1.921639777719974518e-02,4.386218190193176270e-01,2.461304068565368652e-01,2.838949561119079590e-01,1.212634891271591187e-01,4.248049557209014893e-01,-1.091405376791954041e-01,7.880944013595581055e-01,1.985128372907638550e-01,4.135142862796783447e-01,1.129179820418357849e-01,1.464920043945312500e-01,3.849391341209411621e-01,-2.122419327497482300e-02,-1.069770473986864090e-02,4.331016540527343750e-01,-4.651902616024017334e-01,5.273423194885253906e-01,4.159374535083770752e-01,5.314236879348754883e-01,7.142052054405212402e-02,2.839979529380798340e-01,8.648752570152282715e-01,2.529284656047821045e-01,-3.646214604377746582e-01,-2.326285094022750854e-01,3.329306244850158691e-01,1.171950716525316238e-02,5.325573682785034180e-01,5.072172284126281738e-01,1.524367630481719971e-01,3.333828449249267578e-01,-2.180390357971191406e-01,3.739983737468719482e-01,1.344864666461944580e-01,2.797639369964599609e-01,2.853796258568763733e-02,1.712913364171981812e-01,3.472237288951873779e-01,7.634330987930297852e-01,};
static const double lstm_b_hg[64]={2.462598532438278198e-01,-5.415348708629608154e-02,2.250901311635971069e-01,2.671907246112823486e-01,-2.428924590349197388e-01,1.694981940090656281e-03,-4.736318886280059814e-01,1.947170794010162354e-01,8.542648702859878540e-02,1.085187122225761414e-01,1.364182233810424805e-01,5.796099454164505005e-02,-1.820683181285858154e-01,-5.580303072929382324e-02,1.958280056715011597e-02,7.137019634246826172e-01,-1.424351930618286133e-01,-2.711459435522556305e-02,1.960473209619522095e-01,-5.592283606529235840e-02,-3.769244551658630371e-01,-2.990928590297698975e-01,4.037136957049369812e-02,-1.232701689004898071e-01,-5.558960437774658203e-01,3.445388376712799072e-01,-1.145313754677772522e-01,-2.708605024963617325e-03,-4.725999236106872559e-01,6.803654432296752930e-01,4.217710196971893311e-01,6.008680537343025208e-02,4.209808707237243652e-01,-5.803693532943725586e-01,-2.493396699428558350e-01,3.690770566463470459e-01,3.730056881904602051e-01,1.256230771541595459e-01,6.628056615591049194e-02,2.701125442981719971e-01,-1.214612424373626709e-01,-4.674507081508636475e-01,2.585954964160919189e-01,-3.917512595653533936e-01,4.106324613094329834e-01,-4.756567478179931641e-01,1.127703394740819931e-02,5.645927786827087402e-01,-7.445531338453292847e-02,3.285926878452301025e-01,2.386479526758193970e-01,5.412520170211791992e-01,6.599038839340209961e-01,3.185951709747314453e-01,2.112886495888233185e-02,-6.230911612510681152e-01,3.553861081600189209e-01,3.992050290107727051e-01,4.879789054393768311e-01,4.331843256950378418e-01,3.037414848804473877e-01,-5.190236568450927734e-01,2.486451119184494019e-01,-1.057613343000411987e-01,};
static const double lstm_b_hi[64]={1.742991656064987183e-01,1.449915319681167603e-01,-1.278866827487945557e-01,-1.983635127544403076e-01,9.343712776899337769e-02,-5.432069897651672363e-01,-4.918569028377532959e-01,2.761008441448211670e-01,4.979013279080390930e-02,-1.176465302705764771e-01,9.298741072416305542e-02,1.354701966047286987e-01,-2.001063674688339233e-01,-3.885783627629280090e-02,3.716816902160644531e-01,-2.261385172605514526e-01,-9.488221257925033569e-02,-1.064096465706825256e-01,3.591880798339843750e-01,5.799766182899475098e-01,4.211776703596115112e-02,4.054327011108398438e-01,-4.107241630554199219e-01,-6.471744775772094727e-01,7.998608797788619995e-02,-1.818315237760543823e-01,3.194081038236618042e-02,4.162018299102783203e-01,1.395980268716812134e-01,-2.291743904352188110e-01,4.900918006896972656e-01,-8.151895552873611450e-02,-1.614480167627334595e-01,3.230830729007720947e-01,-1.725957542657852173e-01,4.156497418880462646e-01,-6.664367020130157471e-02,-4.986479878425598145e-02,3.809386789798736572e-01,2.191791534423828125e-01,1.716223359107971191e-01,5.439288541674613953e-02,4.925793781876564026e-02,-9.144887328147888184e-02,-2.091998606920242310e-01,-2.359063737094402313e-02,-5.010551214218139648e-01,-2.537910640239715576e-01,-5.949923992156982422e-01,-1.766326874494552612e-01,1.605531722307205200e-01,3.428609371185302734e-01,4.422711133956909180e-01,-4.518481492996215820e-01,-2.133595943450927734e-01,-2.330158352851867676e-01,-2.755085229873657227e-01,-1.305825710296630859e-01,-3.940748050808906555e-03,-4.323691427707672119e-01,-5.210782289505004883e-01,-1.898950040340423584e-01,1.180502995848655701e-01,2.687191963195800781e-01,};
static const double lstm_b_ho[64]={2.216822654008865356e-01,4.183166623115539551e-01,-2.603752911090850830e-02,-1.832324564456939697e-01,2.243374139070510864e-01,-4.239683747291564941e-01,-2.255241870880126953e-01,-2.289917618036270142e-01,4.748771190643310547e-01,2.602174282073974609e-01,-3.520123660564422607e-01,2.375814169645309448e-01,3.596093878149986267e-02,3.114813268184661865e-01,6.757933497428894043e-01,-2.638214826583862305e-02,-1.997279822826385498e-01,3.075963854789733887e-01,1.472301334142684937e-01,5.839429497718811035e-01,2.612549364566802979e-01,-4.664871990680694580e-01,3.610702455043792725e-01,-4.794871211051940918e-01,-1.941626518964767456e-01,2.462563514709472656e-01,-6.100122630596160889e-02,-1.200343221426010132e-01,-1.210236400365829468e-01,-2.934425324201583862e-02,2.521917819976806641e-01,-2.540436089038848877e-01,-4.969482719898223877e-01,7.931385934352874756e-02,2.743694186210632324e-01,1.100495010614395142e-01,1.034653037786483765e-01,1.984235197305679321e-01,1.359444409608840942e-01,5.170090198516845703e-01,1.111939176917076111e-01,3.870667815208435059e-01,4.988466203212738037e-01,1.077890172600746155e-01,-3.321844637393951416e-01,-6.382410228252410889e-02,-2.671688795089721680e-01,-4.381435364484786987e-02,-3.699394464492797852e-01,3.188446760177612305e-01,1.568374186754226685e-01,3.019321477040648460e-03,-1.441188454627990723e-01,-3.032716736197471619e-02,-3.040242195129394531e-01,-1.203598007559776306e-01,-4.216172993183135986e-01,-1.820562630891799927e-01,7.652001827955245972e-02,-2.559482157230377197e-01,9.676567465066909790e-02,2.448119223117828369e-01,1.617702543735504150e-01,7.532924413681030273e-02,};
static const double lstm_b_if[64]={3.392803370952606201e-01,3.965311497449874878e-02,-1.480370163917541504e-01,-1.804998964071273804e-01,1.120859757065773010e-01,-4.473995044827461243e-02,5.280511379241943359e-01,2.120493650436401367e-01,9.537325054407119751e-02,3.249129652976989746e-01,-1.455351412296295166e-01,-4.294849932193756104e-01,6.729096770286560059e-01,7.007683515548706055e-01,-1.042831987142562866e-01,4.909388124942779541e-01,-1.697052419185638428e-01,2.208590060472488403e-01,1.614068895578384399e-01,2.592279016971588135e-01,5.306689441204071045e-02,8.758210539817810059e-01,-6.854447722434997559e-02,2.735018916428089142e-02,-6.684819702059030533e-03,3.394834995269775391e-01,1.664684414863586426e-01,3.882626295089721680e-01,1.126284450292587280e-01,3.176212608814239502e-01,-6.444059312343597412e-02,6.578861474990844727e-01,2.018297463655471802e-01,6.167269349098205566e-01,1.719191819429397583e-01,2.520485222339630127e-01,3.547999262809753418e-01,9.683988243341445923e-02,-5.087084695696830750e-02,4.139137864112854004e-01,-5.005497932434082031e-01,3.873423039913177490e-01,2.993559837341308594e-01,4.902128875255584717e-01,5.786173790693283081e-02,1.524423062801361084e-01,6.704363822937011719e-01,3.282885551452636719e-01,-3.317804336547851562e-01,-1.755991429090499878e-01,3.401148319244384766e-01,1.641322299838066101e-02,4.905835390090942383e-01,4.330520629882812500e-01,1.403312534093856812e-01,3.227697014808654785e-01,-2.419930398464202881e-01,2.601610422134399414e-01,2.218241058290004730e-02,2.448936104774475098e-01,-1.425536125898361206e-01,2.014698833227157593e-01,2.982296645641326904e-01,6.467471718788146973e-01,};
static const double lstm_b_ig[64]={3.489198684692382812e-01,1.622286252677440643e-02,3.326319158077239990e-01,4.465250968933105469e-01,-2.735906839370727539e-01,1.497075147926807404e-02,-5.668253302574157715e-01,1.362359076738357544e-01,8.782801032066345215e-02,4.217594861984252930e-02,2.170217186212539673e-01,-1.317574381828308105e-01,-1.322406232357025146e-01,-8.500167727470397949e-02,1.630170196294784546e-01,7.355877757072448730e-01,-2.036883980035781860e-01,2.503082714974880219e-02,2.149326950311660767e-01,1.057147700339555740e-02,-4.475480318069458008e-01,-4.764945805072784424e-01,5.444391816854476929e-02,5.464923009276390076e-02,-3.645189702510833740e-01,1.097561866044998169e-01,2.107827737927436829e-02,9.818615764379501343e-02,-2.667252123355865479e-01,5.862063169479370117e-01,2.717935442924499512e-01,9.353158064186573029e-03,3.016114234924316406e-01,-6.210375428199768066e-01,-2.063408493995666504e-01,4.721320271492004395e-01,3.694441318511962891e-01,3.346893787384033203e-01,1.502037793397903442e-01,2.638216614723205566e-01,-2.350391000509262085e-01,-4.597772955894470215e-01,2.855046987533569336e-01,-3.473983108997344971e-01,5.149868726730346680e-01,-3.863346278667449951e-01,-1.996691673994064331e-01,4.690907001495361328e-01,-3.185527026653289795e-02,2.153796404600143433e-01,2.449924796819686890e-01,4.065739810466766357e-01,7.667155861854553223e-01,1.052222177386283875e-01,-6.378703564405441284e-02,-5.752146244049072266e-01,4.050282537937164307e-01,6.094596385955810547e-01,5.784704685211181641e-01,2.544880807399749756e-01,7.791957259178161621e-02,-3.940211534500122070e-01,3.896633982658386230e-01,-1.438765879720449448e-02,};
static const double lstm_b_ii[64]={-1.090669725090265274e-02,1.559658348560333252e-01,-3.343495726585388184e-02,-2.217958867549896240e-01,-4.532218351960182190e-02,-7.160004377365112305e-01,-4.644730389118194580e-01,3.086609840393066406e-01,1.302137505263090134e-02,-1.173176616430282593e-01,1.526456326246261597e-01,2.400590479373931885e-01,-1.781819909811019897e-01,2.389302477240562439e-02,3.475009202957153320e-01,-3.550888597965240479e-01,-7.431934773921966553e-02,-1.064654067158699036e-01,3.554271459579467773e-01,4.718038141727447510e-01,4.885806888341903687e-02,3.108325600624084473e-01,-4.324748814105987549e-01,-5.182049274444580078e-01,1.193279549479484558e-01,-1.042826622724533081e-01,3.929630294442176819e-02,5.338200330734252930e-01,6.208480894565582275e-02,-1.003615558147430420e-01,4.522275030612945557e-01,-1.799831688404083252e-01,-1.088718622922897339e-01,1.956754922866821289e-01,-1.996901333332061768e-01,3.298561871051788330e-01,-1.883521378040313721e-01,-6.162746623158454895e-02,4.252059459686279297e-01,2.483972907066345215e-01,6.137476861476898193e-02,-3.213502466678619385e-02,2.152624726295471191e-02,-6.574528664350509644e-02,-2.131942808628082275e-01,-7.192527875304222107e-03,-5.511954426765441895e-01,-3.459438085556030273e-01,-4.802608489990234375e-01,-3.206170499324798584e-01,2.782076001167297363e-01,2.733217179775238037e-01,2.851793766021728516e-01,-5.311862230300903320e-01,-1.618812084197998047e-01,-1.558798551559448242e-01,-1.577515453100204468e-01,-7.707408070564270020e-02,4.740897100418806076e-03,-4.686416983604431152e-01,-6.073485612869262695e-01,3.183375298976898193e-02,3.455397486686706543e-01,3.076236844062805176e-01,};
static const double lstm_b_io[64]={3.371452689170837402e-01,2.628058195114135742e-01,-2.936321543529629707e-03,-1.630621850490570068e-01,2.599000036716461182e-01,-3.130556643009185791e-01,-1.016990020871162415e-01,-1.798668950796127319e-01,4.421396553516387939e-01,1.942801028490066528e-01,-1.471059471368789673e-01,1.223104521632194519e-01,-6.073887646198272705e-02,1.287588179111480713e-01,5.980473756790161133e-01,5.946769565343856812e-02,-2.807407081127166748e-01,3.486455380916595459e-01,1.469765305519104004e-01,6.691160798072814941e-01,8.828634768724441528e-02,-2.272219210863113403e-01,5.100348591804504395e-01,-4.912097752094268799e-01,-3.192355632781982422e-01,3.175781071186065674e-01,5.290807783603668213e-02,-1.295892000198364258e-01,-1.622513234615325928e-01,-9.556324034929275513e-02,4.769715368747711182e-01,-2.822622060775756836e-01,-5.695969462394714355e-01,2.134444713592529297e-01,3.573785722255706787e-01,4.653732106089591980e-02,-1.077697500586509705e-01,3.460864126682281494e-01,-2.654012758284807205e-03,4.334664940834045410e-01,1.264895051717758179e-01,3.948259055614471436e-01,5.873944759368896484e-01,1.172743737697601318e-01,-1.285816729068756104e-01,-2.081398367881774902e-01,-2.393884360790252686e-01,9.387399256229400635e-02,-3.306428790092468262e-01,2.154615670442581177e-01,1.214238479733467102e-01,-8.108966052532196045e-02,-1.310454308986663818e-01,-3.662683814764022827e-02,-4.135711491107940674e-01,-5.470613017678260803e-02,-2.729786038398742676e-01,-1.567115038633346558e-01,-5.619859322905540466e-02,-3.603609502315521240e-01,3.887284174561500549e-02,2.166817486286163330e-01,5.630517005920410156e-02,-1.477755233645439148e-02,};
static const double lstm_w_hf[64][64]={{-1.709418296813964844e-01,2.310207486152648926e-02,3.262900114059448242e-01,-2.851943857967853546e-02,-3.846499323844909668e-01,1.030935943126678467e-01,-3.423952460289001465e-01,-6.960333585739135742e-01,-5.987613275647163391e-02,-1.382094901055097580e-02,-4.026152193546295166e-01,4.694754183292388916e-01,-9.020484685897827148e-01,-3.519101440906524658e-01,-3.393057361245155334e-02,1.719425469636917114e-01,1.600633561611175537e-01,-1.914501376450061798e-02,-8.838988840579986572e-02,-6.969290226697921753e-02,3.066237568855285645e-01,1.354165971279144287e-01,1.860046945512294769e-02,5.492487549781799316e-02,-2.504599392414093018e-01,-1.385115236043930054e-01,1.208688095211982727e-01,-1.033305674791336060e-01,-3.770682513713836670e-01,5.963021516799926758e-01,5.654731765389442444e-02,1.747127771377563477e-01,1.290105879306793213e-01,-5.443559885025024414e-01,2.325826734304428101e-01,6.126985698938369751e-02,1.531517654657363892e-01,3.768559694290161133e-01,-9.896512329578399658e-02,4.483155012130737305e-01,-2.579008042812347412e-01,-2.515570223331451416e-01,-1.569919735193252563e-01,-6.105710864067077637e-01,3.159169554710388184e-01,-1.480502486228942871e-01,-1.181321665644645691e-01,1.234737504273653030e-02,2.226083725690841675e-02,1.090577021241188049e-01,5.563136935234069824e-01,-3.889109194278717041e-02,-9.025861322879791260e-02,4.296898543834686279e-01,4.072743058204650879e-01,-5.691545084118843079e-02,3.178175091743469238e-01,2.879292666912078857e-01,2.232171595096588135e-01,5.371813476085662842e-02,5.273898318409919739e-02,-1.605357974767684937e-01,2.683070003986358643e-01,-1.769061833620071411e-01,},{-3.363101482391357422e-01,4.528227075934410095e-02,-6.988998651504516602e-01,3.147690296173095703e-01,-7.279693484306335449e-01,-7.232194542884826660e-01,2.952839732170104980e-01,-8.556251525878906250e-01,5.858889967203140259e-02,-3.842583298683166504e-01,-6.300349235534667969e-01,3.388012349605560303e-01,-9.051430225372314453e-02,-5.936873555183410645e-01,3.810526058077812195e-02,-6.227661296725273132e-02,3.430818021297454834e-01,-2.266609966754913330e-01,-5.396280288696289062e-01,-1.686191856861114502e-01,5.919034481048583984e-01,-2.444679588079452515e-01,5.517945885658264160e-01,4.243460595607757568e-01,6.932165026664733887e-01,-5.529158711433410645e-01,2.362017631530761719e-01,-6.084319576621055603e-02,5.851255059242248535e-01,4.182153567671775818e-02,-3.715981245040893555e-01,-5.036634802818298340e-01,-3.233111798763275146e-01,3.378329873085021973e-01,-4.118633866310119629e-01,-5.504454374313354492e-01,-1.541924476623535156e-01,3.538239300251007080e-01,-2.058848440647125244e-01,1.848966777324676514e-01,2.646084129810333252e-01,1.340463608503341675e-01,1.571613699197769165e-01,7.529339939355850220e-02,-4.760843515396118164e-02,-1.830278635025024414e-01,-4.061852991580963135e-01,-3.855613470077514648e-01,3.052731752395629883e-01,-2.369267195463180542e-01,-1.839617453515529633e-02,-3.417440354824066162e-01,-1.050850674510002136e-01,-3.615492582321166992e-01,3.813433945178985596e-01,-6.729323416948318481e-02,-1.336038857698440552e-01,-1.616686582565307617e-01,-3.360787928104400635e-01,-4.838751256465911865e-01,-4.056188166141510010e-01,6.208167672157287598e-01,-2.430136948823928833e-01,-2.472358345985412598e-01,},{-2.995590269565582275e-01,5.032979846000671387e-01,1.118431910872459412e-01,-4.048157930374145508e-01,-3.300287723541259766e-01,3.370694518089294434e-01,-5.919716954231262207e-01,1.727923154830932617e-01,3.023070693016052246e-01,3.284672796726226807e-01,-3.457078039646148682e-01,5.085127353668212891e-01,3.747612535953521729e-01,-5.448654890060424805e-01,-6.330736875534057617e-01,-6.626048088073730469e-01,3.445474207401275635e-01,-3.975834250450134277e-01,-2.641300112009048462e-02,-5.320143103599548340e-01,1.043488457798957825e-01,3.747905492782592773e-01,3.474641442298889160e-01,-4.655253291130065918e-01,-4.525303542613983154e-01,-2.817557752132415771e-01,6.691157221794128418e-01,-4.889453575015068054e-02,-1.008050739765167236e-01,-4.953088760375976562e-01,-4.328515231609344482e-01,-3.193383514881134033e-01,3.495384752750396729e-02,-2.634838521480560303e-01,4.087162613868713379e-01,-7.442322373390197754e-01,-4.085393846035003662e-01,-5.471339076757431030e-02,-3.421605527400970459e-01,2.827333807945251465e-01,3.852343559265136719e-01,2.164771854877471924e-01,-9.505118131637573242e-01,5.316449403762817383e-01,-3.245728313922882080e-01,2.338811457157135010e-01,1.820104718208312988e-01,2.235582098364830017e-02,4.480279088020324707e-01,-4.282682240009307861e-01,-5.734585523605346680e-01,-4.546953141689300537e-01,-5.412987470626831055e-01,5.159354209899902344e-01,-1.772614568471908569e-01,4.996111243963241577e-02,-4.805941283702850342e-01,5.386687517166137695e-01,-4.025466442108154297e-01,-1.734178066253662109e-01,3.749575316905975342e-01,5.869258046150207520e-01,-5.677679777145385742e-01,1.728859543800354004e-01,},{-1.025216951966285706e-01,-2.770028412342071533e-01,-5.977014303207397461e-01,1.115958020091056824e-01,4.660738706588745117e-01,-1.315728187561035156e+00,4.466113150119781494e-01,-5.623092651367187500e-01,-6.616459786891937256e-02,-5.486955046653747559e-01,-4.417290687561035156e-01,1.036035060882568359e+00,-3.360391408205032349e-02,-4.565930366516113281e-01,-1.067220091819763184e+00,-6.580861806869506836e-01,-4.727902635931968689e-02,-7.101005315780639648e-01,3.790700137615203857e-01,-4.289861619472503662e-01,1.313771009445190430e-01,-4.152230620384216309e-01,6.943351626396179199e-01,5.086149573326110840e-01,1.252557616680860519e-02,-6.927620768547058105e-01,2.339822351932525635e-01,-6.147752702236175537e-02,4.751957207918167114e-02,4.279217720031738281e-01,-3.059155941009521484e-01,-6.313136816024780273e-01,-2.566764056682586670e-01,1.072679087519645691e-01,-6.977223753929138184e-01,2.519633173942565918e-01,-6.981688737869262695e-02,-1.328923106193542480e-01,-8.316090703010559082e-01,3.997597098350524902e-01,7.679950594902038574e-01,-4.226231873035430908e-01,9.199477434158325195e-01,1.880665272474288940e-01,1.713341921567916870e-01,-4.287148639559745789e-02,4.349011480808258057e-01,1.509127207100391388e-02,5.131155252456665039e-01,-3.027374856173992157e-02,6.961656212806701660e-01,-1.609963327646255493e-01,3.400906324386596680e-01,5.818472057580947876e-02,2.668474018573760986e-01,-4.973989352583885193e-02,3.044818341732025146e-01,1.042608991265296936e-01,-4.832367897033691406e-01,-1.034127771854400635e-01,1.767565757036209106e-01,6.827716231346130371e-01,-1.229273378849029541e-01,4.179172515869140625e-01,},{2.118279784917831421e-01,8.765003085136413574e-01,-5.446648597717285156e-01,-5.075712502002716064e-02,-3.047916591167449951e-01,-2.760188877582550049e-01,-3.197066858410835266e-02,5.650381743907928467e-02,3.642687499523162842e-01,9.816386550664901733e-02,-1.305455863475799561e-01,-1.074683070182800293e-01,1.322039365768432617e-01,5.706727504730224609e-01,-3.194811344146728516e-01,1.654445976018905640e-01,-5.462972074747085571e-02,1.579355448484420776e-01,4.469196796417236328e-01,-1.599798351526260376e-01,3.695527911186218262e-01,-3.044262230396270752e-01,3.677774965763092041e-01,-4.333705902099609375e-01,-1.570098251104354858e-01,3.579577803611755371e-01,1.423586718738079071e-02,9.910356998443603516e-02,-1.031678318977355957e-01,-5.956463813781738281e-01,1.984661966562271118e-01,6.364419460296630859e-01,6.362199187278747559e-01,-6.080759763717651367e-01,2.794129550457000732e-01,-1.804081946611404419e-01,1.183647513389587402e-01,-1.627966612577438354e-01,-1.772665232419967651e-02,1.959787309169769287e-01,-3.771384656429290771e-01,-7.830096483230590820e-01,-6.575966477394104004e-01,-4.066582396626472473e-02,-4.557083174586296082e-02,2.694160304963588715e-02,5.147568583488464355e-01,4.785011410713195801e-01,-7.424642145633697510e-02,2.292823940515518188e-01,-2.489403933286666870e-01,-3.497232198715209961e-01,-3.643355518579483032e-02,4.499241113662719727e-01,9.975248575210571289e-02,-2.401377707719802856e-01,-9.971664845943450928e-02,1.742647439241409302e-01,1.038535032421350479e-02,-2.754726409912109375e-01,1.111677065491676331e-01,-1.613183319568634033e-01,2.990764677524566650e-01,5.965373516082763672e-01,},{-6.804954260587692261e-02,-6.099771857261657715e-01,-3.269079327583312988e-01,-1.196046322584152222e-01,6.673375368118286133e-01,-1.891669631004333496e-01,3.527174890041351318e-01,-2.564259171485900879e-01,3.913006484508514404e-01,3.814808130264282227e-01,-3.697222173213958740e-01,7.411032915115356445e-02,9.401176571846008301e-01,-6.904982328414916992e-01,-2.141592949628829956e-01,-2.618248760700225830e-01,2.155020236968994141e-01,8.737076818943023682e-02,5.174556374549865723e-02,-2.211740911006927490e-01,3.624940291047096252e-02,-1.238560900092124939e-01,3.032071292400360107e-01,-1.203340664505958557e-02,6.422784924507141113e-02,-2.633889913558959961e-01,1.987500637769699097e-01,-5.042299032211303711e-01,1.245830357074737549e-01,-1.035123616456985474e-01,-1.783496141433715820e-01,-6.932465434074401855e-01,1.263299882411956787e-01,1.063250303268432617e-01,-6.756485998630523682e-02,-1.415288895368576050e-01,-3.579100072383880615e-01,-2.155110007151961327e-03,-3.460707366466522217e-01,2.826441824436187744e-01,3.453647494316101074e-01,-6.463636457920074463e-02,4.110194370150566101e-02,4.033258557319641113e-01,2.690152265131473541e-02,-6.177472695708274841e-02,-3.542881831526756287e-02,-2.063958197832107544e-01,1.979990601539611816e-01,-2.701593004167079926e-02,7.876481413841247559e-01,-4.752833545207977295e-01,-1.108205467462539673e-01,1.140702217817306519e-01,2.984405457973480225e-01,-4.150957465171813965e-01,-1.207625493407249451e-01,-4.956443607807159424e-01,-4.692379757761955261e-02,-3.996115177869796753e-02,-4.494346380233764648e-01,-1.430355161428451538e-01,-1.911160498857498169e-01,-1.770652085542678833e-01,},{-3.439637422561645508e-01,-3.919675946235656738e-01,-8.709989488124847412e-02,1.881559491157531738e-01,-6.934558749198913574e-01,3.400458693504333496e-01,-7.975689172744750977e-01,4.626952409744262695e-01,-4.769264757633209229e-01,1.831497699022293091e-01,1.531984359025955200e-01,4.741735756397247314e-01,3.590627610683441162e-01,4.332736730575561523e-01,3.304840922355651855e-01,6.560606360435485840e-01,-6.169327497482299805e-01,1.493321061134338379e-01,4.212346971035003662e-01,2.342296242713928223e-01,-2.718576490879058838e-01,-7.553784549236297607e-02,-7.447578758001327515e-02,9.613958746194839478e-02,-4.542186558246612549e-01,2.693280875682830811e-01,5.013709515333175659e-02,-7.285492867231369019e-02,-9.364115595817565918e-01,3.586902022361755371e-01,4.091469943523406982e-01,1.107626706361770630e-01,-3.383343517780303955e-01,-2.206290364265441895e-01,2.556812465190887451e-01,3.173938691616058350e-01,6.674757599830627441e-01,-3.006256818771362305e-01,1.002899482846260071e-01,-3.089804388582706451e-02,-2.555982768535614014e-01,-1.611644178628921509e-01,1.381830573081970215e-01,7.477483898401260376e-02,-2.303193360567092896e-01,-4.698631167411804199e-01,3.155067190527915955e-02,-5.677030235528945923e-02,-2.266046851873397827e-01,7.408217787742614746e-01,-1.251765608787536621e+00,2.489712089300155640e-01,3.640066385269165039e-01,3.416555523872375488e-01,1.156700700521469116e-01,4.453515633940696716e-02,3.073431849479675293e-01,7.253381609916687012e-01,-2.500440180301666260e-01,5.148361325263977051e-01,-1.187481656670570374e-01,-4.571448266506195068e-01,1.682698279619216919e-01,4.750586152076721191e-01,},{3.948715031147003174e-01,-3.892858922481536865e-01,-2.303914278745651245e-01,3.069834709167480469e-01,1.576564759016036987e-01,-5.264618992805480957e-01,1.595147401094436646e-01,9.722392261028289795e-02,-1.904335319995880127e-01,1.342803537845611572e-01,8.000537008047103882e-02,4.240487217903137207e-01,4.587347209453582764e-01,-2.614247798919677734e-01,-2.876292914152145386e-02,2.804597467184066772e-02,-3.019343316555023193e-01,-2.096111923456192017e-01,1.670756493695080280e-03,8.477022498846054077e-02,-6.323661655187606812e-02,-9.278465062379837036e-02,-5.392972379922866821e-02,2.637293338775634766e-01,4.441567063331604004e-01,-4.783671498298645020e-01,-3.777437806129455566e-01,8.365374989807605743e-03,1.184762939810752869e-01,-1.359055191278457642e-01,1.171968355774879456e-01,-2.578419744968414307e-01,1.094128657132387161e-02,4.664131104946136475e-01,-8.858332037925720215e-02,2.557048806920647621e-03,-1.132293343544006348e-01,6.218386813998222351e-02,-9.547847509384155273e-02,-2.296962738037109375e-01,-2.660508155822753906e-01,6.266527175903320312e-01,1.018873974680900574e-01,7.783523201942443848e-01,1.518118828535079956e-01,-2.637327611446380615e-01,1.103475242853164673e-01,6.237985938787460327e-02,-2.204983085393905640e-01,-3.214340209960937500e-01,3.018421828746795654e-01,2.920382618904113770e-01,3.181023001670837402e-01,-5.355924367904663086e-01,3.956374824047088623e-01,-3.064798116683959961e-01,6.224852055311203003e-02,-3.411151468753814697e-01,2.146397829055786133e-01,-5.821466073393821716e-02,-3.183628022670745850e-01,-1.920709609985351562e-01,-6.444682180881500244e-02,-1.648726761341094971e-01,},{-4.026600122451782227e-01,2.822614014148712158e-01,-1.881823390722274780e-01,-3.789143264293670654e-01,-3.283894062042236328e-01,4.124270007014274597e-02,-1.472875475883483887e-01,1.222313717007637024e-01,-1.034900769591331482e-01,3.523573279380798340e-01,4.649355113506317139e-01,-4.291778802871704102e-01,1.908660233020782471e-01,4.051969945430755615e-01,-6.368579715490341187e-02,1.797150224447250366e-01,1.709894835948944092e-01,1.989273168146610260e-02,-2.644695341587066650e-01,4.868981242179870605e-02,-1.860877722501754761e-01,-3.614555299282073975e-02,2.676213905215263367e-02,4.712842106819152832e-01,5.222070589661598206e-02,2.166817039251327515e-01,-3.574394285678863525e-01,2.525874376296997070e-01,-2.932995855808258057e-01,-1.801351606845855713e-01,1.722502112388610840e-01,6.529662013053894043e-01,7.669441401958465576e-02,-8.551446348428726196e-02,2.656814455986022949e-01,-2.143312245607376099e-01,1.405421048402786255e-01,-1.107259988784790039e+00,-1.711635887622833252e-01,-3.807817101478576660e-01,-1.671211570501327515e-01,3.854699730873107910e-01,-3.340489417314529419e-02,5.970702171325683594e-01,-2.902551591396331787e-01,6.295986473560333252e-02,3.217032849788665771e-01,-4.421199262142181396e-01,-2.433108240365982056e-01,-2.995215654373168945e-01,-8.980647921562194824e-01,6.635337322950363159e-02,5.465405061841011047e-02,-1.028514951467514038e-01,-1.930370330810546875e-01,-1.270705312490463257e-01,1.753439605236053467e-01,3.296312391757965088e-01,-3.773438632488250732e-01,-4.947037249803543091e-02,7.696221023797988892e-02,-1.563625335693359375e-01,-3.260139226913452148e-01,2.898919582366943359e-01,},{-3.585169315338134766e-01,-1.084423065185546875e+00,-2.907829880714416504e-01,2.841613292694091797e-01,-1.266193240880966187e-01,-6.733055710792541504e-01,2.570388317108154297e-01,-2.487612366676330566e-01,5.916802212595939636e-02,1.915271021425724030e-02,1.959718167781829834e-01,-5.347139760851860046e-02,6.934083700180053711e-01,-2.642809040844440460e-02,2.519428431987762451e-01,3.588986098766326904e-01,1.317231357097625732e-01,1.146833002567291260e-01,-5.042336508631706238e-02,1.124595850706100464e-01,-3.335327804088592529e-01,-4.602032899856567383e-01,-1.596154719591140747e-01,5.220935940742492676e-01,1.281365156173706055e-01,-2.354339659214019775e-01,2.187632024288177490e-01,-1.309597641229629517e-01,-2.395708560943603516e-01,1.398349106311798096e-01,-9.171201288700103760e-02,-8.287608623504638672e-02,-1.355842500925064087e-01,6.420463323593139648e-01,-5.498040318489074707e-01,1.166590377688407898e-01,3.489248156547546387e-01,-2.751545906066894531e-01,3.342234194278717041e-01,8.106665313243865967e-02,4.767401218414306641e-01,7.085307836532592773e-01,4.753193557262420654e-01,9.241756200790405273e-01,7.504101395606994629e-01,-3.142541646957397461e-01,-3.804009258747100830e-01,2.886316180229187012e-01,1.567827463150024414e-01,-4.780681729316711426e-01,-6.074263900518417358e-02,4.806233569979667664e-02,1.546752005815505981e-01,-1.741026714444160461e-02,2.364586293697357178e-01,-3.240897357463836670e-01,-1.812645196914672852e-01,-1.138048619031906128e-01,4.428579285740852356e-02,-1.569119393825531006e-01,-7.244183421134948730e-01,2.739688158035278320e-01,-9.587188363075256348e-01,-4.208020400255918503e-03,},{-8.697736077010631561e-03,-2.968699932098388672e-01,-2.329380661249160767e-01,-8.890525996685028076e-02,5.100387930870056152e-01,-8.412808179855346680e-02,-4.055720269680023193e-01,4.441190361976623535e-01,-1.279180347919464111e-01,4.009296894073486328e-01,6.286428123712539673e-02,-1.151670068502426147e-01,1.574320942163467407e-01,1.952392309904098511e-01,1.063235029578208923e-01,-7.626452296972274780e-02,3.556377589702606201e-01,2.265497148036956787e-01,-4.968697577714920044e-02,3.244542181491851807e-01,-1.290194243192672729e-01,1.977958530187606812e-01,1.164127215743064880e-01,2.785156965255737305e-01,-2.878384850919246674e-02,-1.128093451261520386e-01,-1.894124895334243774e-01,-4.567316547036170959e-02,1.319670379161834717e-01,-6.664834022521972656e-01,-1.985880136489868164e-01,-3.824560344219207764e-01,-7.448095083236694336e-02,1.760351359844207764e-01,2.639889717102050781e-01,-1.754004210233688354e-01,-2.615185081958770752e-01,-2.312225103378295898e-01,2.593415677547454834e-01,-2.353442311286926270e-01,1.691189855337142944e-01,9.055914282798767090e-01,-2.604524195194244385e-01,7.822617888450622559e-01,-2.066691070795059204e-01,2.102641575038433075e-02,3.652899861335754395e-01,2.485027723014354706e-02,-3.622376918792724609e-02,-1.503780484199523926e-01,1.024507284164428711e-01,-1.866210997104644775e-01,-1.234947368502616882e-01,-1.196914017200469971e-01,-2.592289149761199951e-01,5.086790323257446289e-01,2.253137715160846710e-02,-2.032306790351867676e-01,1.548264175653457642e-01,1.977385208010673523e-02,-3.802111446857452393e-01,8.276404440402984619e-02,-4.614384174346923828e-01,-3.532322943210601807e-01,},{7.143519818782806396e-02,-3.187460601329803467e-01,-1.471043467521667480e+00,-9.860561788082122803e-02,8.696867525577545166e-02,2.574675977230072021e-01,5.958578586578369141e-01,-4.803034365177154541e-01,-1.502707302570343018e-01,-2.932961285114288330e-01,-4.430574774742126465e-01,5.576031208038330078e-01,-2.363297641277313232e-01,-5.311622023582458496e-01,-4.506758451461791992e-01,1.198783889412879944e-01,-5.280161276459693909e-02,-3.054489791393280029e-01,-9.970013052225112915e-03,-3.881049454212188721e-01,4.705353677272796631e-01,-1.057904064655303955e-01,4.574273526668548584e-01,-5.411140918731689453e-01,2.012809216976165771e-01,-9.343964606523513794e-02,-1.717610806226730347e-01,-9.521428346633911133e-01,1.762330681085586548e-01,-3.549837172031402588e-01,-5.607760548591613770e-01,-3.002998828887939453e-01,3.352787345647811890e-02,8.493958413600921631e-02,-5.250890254974365234e-01,-2.611469626426696777e-01,-2.082338929176330566e-01,-5.053290724754333496e-02,-6.266624331474304199e-01,1.855755001306533813e-01,3.669802844524383545e-01,-1.094945371150970459e-01,-8.404541760683059692e-02,6.813429594039916992e-01,-6.645207852125167847e-02,8.642743527889251709e-02,-4.545803368091583252e-01,-8.957323431968688965e-02,4.543983042240142822e-01,-1.881003826856613159e-01,6.411195993423461914e-01,-2.528949677944183350e-01,-7.314866781234741211e-01,-2.305999547243118286e-01,4.048998057842254639e-01,1.751277446746826172e-01,3.274769186973571777e-01,-6.657393574714660645e-01,-9.741238504648208618e-02,-2.652964890003204346e-01,-1.599705964326858521e-01,3.128419518470764160e-01,5.412748456001281738e-01,-4.825969636440277100e-01,},{5.054957270622253418e-01,-5.467903614044189453e-01,2.016725838184356689e-01,1.041468143463134766e+00,-2.064916864037513733e-02,-5.814647674560546875e-01,3.926120400428771973e-01,1.178708393126726151e-02,2.584373950958251953e-01,-9.518631696701049805e-01,1.651637703180313110e-01,7.129461169242858887e-01,-9.127160906791687012e-01,-1.087333679199218750e+00,-3.591696619987487793e-01,1.629078537225723267e-01,3.047088980674743652e-01,-1.310197949409484863e+00,3.657577335834503174e-01,-2.427755445241928101e-01,2.042475193738937378e-01,-8.849899172782897949e-01,-4.538042005151510239e-03,2.230672687292098999e-01,-4.092349410057067871e-01,-3.282657861709594727e-01,1.795391291379928589e-01,-3.851889967918395996e-01,-3.351429402828216553e-01,9.010652303695678711e-01,3.856376707553863525e-01,-6.399891972541809082e-01,3.057056367397308350e-01,5.320004820823669434e-01,-6.371814608573913574e-01,1.000182271003723145e+00,8.289576172828674316e-01,2.957041561603546143e-01,-6.994730830192565918e-01,1.113633990287780762e+00,3.431384861469268799e-01,-1.007435172796249390e-01,2.445534765720367432e-01,-1.026334524154663086e+00,4.521579146385192871e-01,-8.386599421501159668e-01,-1.094359278678894043e+00,4.000758230686187744e-01,-2.474688142538070679e-01,8.918589353561401367e-02,7.433812022209167480e-01,-7.154916226863861084e-02,1.207126528024673462e-01,3.181936442852020264e-01,4.219603240489959717e-01,-6.467317342758178711e-01,-7.551453076303005219e-03,8.376266807317733765e-02,3.010118305683135986e-01,2.528004050254821777e-01,-4.280799627304077148e-01,-1.362185180187225342e-01,5.976863503456115723e-01,-3.492496609687805176e-01,},{-5.203360915184020996e-01,-3.901558518409729004e-01,4.709279835224151611e-01,5.006473064422607422e-01,-8.084401488304138184e-01,3.365867137908935547e-01,-4.025939851999282837e-02,5.543784499168395996e-01,5.623495578765869141e-01,-5.915620923042297363e-01,1.568764597177505493e-01,-2.239151597023010254e-01,-3.733157813549041748e-01,3.535030782222747803e-01,6.226537004113197327e-02,-1.023738160729408264e-01,4.039869643747806549e-03,1.614150255918502808e-01,4.055228084325790405e-02,-5.167109966278076172e-01,2.791164219379425049e-01,-1.056268334388732910e+00,-1.546836197376251221e-01,7.590604573488235474e-02,-9.306442737579345703e-02,-6.998234242200851440e-02,8.828347176313400269e-02,-1.876672804355621338e-01,-4.390040040016174316e-01,7.615548372268676758e-01,2.200704067945480347e-01,3.377830982208251953e-01,-5.731328129768371582e-01,1.637079715728759766e-01,-9.620891809463500977e-01,4.716054201126098633e-01,2.807880043983459473e-01,3.520091772079467773e-01,-1.396242082118988037e-01,-6.822393536567687988e-01,-7.141153216361999512e-01,-3.155031800270080566e-01,2.046312987804412842e-01,-3.852359056472778320e-01,6.151745319366455078e-01,-3.419415652751922607e-01,2.594402134418487549e-01,-2.580869197845458984e-01,-1.502612233161926270e-01,6.285936832427978516e-01,-2.871906459331512451e-01,1.202937245368957520e+00,3.380890786647796631e-01,1.428589690476655960e-02,7.638090252876281738e-01,-1.118159651756286621e+00,5.258147120475769043e-01,6.042178273200988770e-01,6.777483820915222168e-01,5.789355039596557617e-01,3.712547421455383301e-01,-5.349546670913696289e-01,-7.007253170013427734e-02,-4.125404953956604004e-01,},{1.723179221153259277e-01,2.367882430553436279e-01,1.327084302902221680e-01,-1.624174118041992188e-01,-3.081333637237548828e-02,1.944277286529541016e-01,-1.001287624239921570e-01,-2.322382479906082153e-01,-2.328291982412338257e-01,-1.152343750000000000e-01,-8.344651758670806885e-02,4.455404877662658691e-01,-9.180819243192672729e-02,-7.190071046352386475e-02,-1.557378619909286499e-01,1.326941549777984619e-01,1.644388288259506226e-01,1.349290311336517334e-01,-2.260363996028900146e-01,1.942707151174545288e-01,1.609228551387786865e-01,3.656194508075714111e-01,2.009127438068389893e-01,-2.618774771690368652e-01,1.567890644073486328e-01,-3.351061344146728516e-01,5.665944423526525497e-03,2.695777714252471924e-01,3.016251325607299805e-01,2.163922786712646484e-01,-3.750860989093780518e-01,-3.053287602961063385e-02,2.472253739833831787e-01,2.825279831886291504e-01,-7.822349667549133301e-03,-4.412542283535003662e-01,-3.542879968881607056e-02,-4.481198489665985107e-01,1.196272969245910645e-01,2.039147615432739258e-01,2.491794675588607788e-01,3.574749529361724854e-01,-2.563300132751464844e-01,3.440956771373748779e-01,-3.289170861244201660e-01,6.053495407104492188e-01,4.242691025137901306e-02,2.055984437465667725e-01,1.684149205684661865e-01,-5.331260561943054199e-01,-2.973987907171249390e-02,-2.844809591770172119e-01,-3.047364354133605957e-01,-1.601191163063049316e-01,2.442808449268341064e-01,4.783652722835540771e-01,-1.171912550926208496e-01,7.626774907112121582e-02,-3.318450152873992920e-01,-2.051124125719070435e-01,-2.719841599464416504e-01,1.060635522007942200e-01,-4.999789893627166748e-01,3.276185095310211182e-01,},{-1.672272980213165283e-01,-2.046936154365539551e-01,7.109891176223754883e-01,3.869303464889526367e-01,1.152584552764892578e+00,4.655308425426483154e-01,-3.414969742298126221e-01,5.191653370857238770e-01,4.123594164848327637e-01,5.446640253067016602e-01,3.467248380184173584e-01,-3.343288302421569824e-01,-5.906363725662231445e-01,3.202602565288543701e-01,-4.095349013805389404e-01,1.237759351730346680e+00,-1.286569684743881226e-01,-1.500134319067001343e-01,8.987588882446289062e-01,-2.990847826004028320e-01,-7.902044653892517090e-01,-4.597338140010833740e-01,-5.390369296073913574e-01,-3.096150159835815430e-01,-2.899626195430755615e-01,8.821707963943481445e-01,-3.346134722232818604e-02,-4.956140220165252686e-01,-7.562434673309326172e-01,-1.044836454093456268e-02,1.241038590669631958e-01,1.004045605659484863e+00,-4.159882068634033203e-01,-3.715721368789672852e-01,-2.972370386123657227e-01,6.776703596115112305e-01,1.179462075233459473e+00,-2.773506343364715576e-01,4.186209738254547119e-01,-5.067358911037445068e-02,6.274693012237548828e-01,-3.117990791797637939e-01,2.733575999736785889e-01,-1.065445877611637115e-02,2.887209355831146240e-01,-2.243858128786087036e-01,-4.384010732173919678e-01,2.641439735889434814e-01,-1.119818817824125290e-02,2.936183009296655655e-03,-2.202594280242919922e-02,-2.305322736501693726e-01,6.324431896209716797e-01,3.381567299365997314e-01,-1.826082915067672729e-01,-1.863235384225845337e-01,1.143224462866783142e-01,8.418197631835937500e-01,1.169994994997978210e-01,3.234553933143615723e-01,2.067885249853134155e-01,-8.578865528106689453e-01,-3.300940394401550293e-01,3.760135769844055176e-01,},{-3.527620732784271240e-01,-1.597063839435577393e-01,1.935242712497711182e-01,-4.160429835319519043e-01,4.687506705522537231e-02,7.265695333480834961e-01,-7.116814702749252319e-02,-1.962716430425643921e-01,-1.254245638847351074e-01,4.084006324410438538e-02,-4.782032370567321777e-01,3.251062706112861633e-02,2.506702765822410583e-02,-3.489817976951599121e-01,-4.876603782176971436e-01,-3.656706809997558594e-01,-1.629323512315750122e-01,8.132952451705932617e-02,-1.051281616091728210e-01,-2.095391899347305298e-01,2.423086166381835938e-01,7.348012179136276245e-02,3.779188096523284912e-01,-5.391273498535156250e-01,3.586715459823608398e-01,-1.971413493156433105e-01,-3.820610344409942627e-01,1.143763661384582520e-01,-7.620266079902648926e-02,4.502876475453376770e-02,-4.493070840835571289e-01,2.861432358622550964e-02,3.433085978031158447e-01,5.110648274421691895e-01,4.382837116718292236e-01,-4.233697950839996338e-01,-4.896617531776428223e-01,-7.014721632003784180e-03,-2.762827277183532715e-01,3.694901168346405029e-01,-2.352031506597995758e-02,5.705282688140869141e-01,-1.950714141130447388e-01,-2.870197296142578125e-01,1.960094720125198364e-01,4.415719807147979736e-01,-3.090507686138153076e-01,-8.101506233215332031e-01,2.540559768676757812e-01,-2.534750662744045258e-02,-2.674713134765625000e-01,-2.066904306411743164e-01,-2.300874292850494385e-01,-3.848744630813598633e-01,-8.878343552350997925e-02,1.584490239620208740e-01,1.782790273427963257e-01,-2.168682515621185303e-01,-3.431148827075958252e-01,-2.381835877895355225e-01,-1.155941486358642578e-01,3.589658439159393311e-01,-9.082785993814468384e-02,-1.134632900357246399e-01,},{-4.538936614990234375e-01,-8.590465784072875977e-01,-7.002757787704467773e-01,9.291682392358779907e-02,1.487147212028503418e-01,-5.071300864219665527e-01,-1.709256023168563843e-01,1.101581379771232605e-01,4.633392691612243652e-01,4.972035437822341919e-02,-4.969112947583198547e-02,5.030922293663024902e-01,3.475095331668853760e-01,-2.645120918750762939e-01,-2.855332493782043457e-01,4.133033454418182373e-01,1.195236966013908386e-01,2.889692187309265137e-01,-5.646650865674018860e-02,-4.841272234916687012e-01,-2.468387484550476074e-01,-3.100340664386749268e-01,-3.196075186133384705e-02,3.274176120758056641e-01,-5.547566711902618408e-02,-2.023773789405822754e-01,-1.266158223152160645e-01,-2.155784666538238525e-01,-3.707282543182373047e-01,1.212718859314918518e-01,-3.752829432487487793e-01,-5.207695066928863525e-02,-2.351793348789215088e-01,1.362416893243789673e-01,9.278866648674011230e-02,-5.036236643791198730e-01,-1.130946204066276550e-01,-2.326376289129257202e-01,-9.141302108764648438e-01,-5.471043586730957031e-01,5.910936594009399414e-01,4.035425782203674316e-01,-8.963049203157424927e-02,7.942246794700622559e-01,1.266693472862243652e-01,2.328577637672424316e-02,-6.326159238815307617e-01,-3.502530455589294434e-01,-1.349293142557144165e-01,-6.657253503799438477e-01,7.990784011781215668e-03,-6.108471751213073730e-01,1.909411102533340454e-01,-3.118351101875305176e-01,-2.996526360511779785e-01,2.181717008352279663e-02,-2.549576759338378906e-01,6.293681263923645020e-02,-4.933505356311798096e-01,1.654208153486251831e-01,-5.210269093513488770e-01,1.527643799781799316e-01,-4.530873298645019531e-01,3.149383366107940674e-01,},{6.362276673316955566e-01,1.980030089616775513e-01,-1.497304141521453857e-01,6.549435667693614960e-03,-5.064900964498519897e-02,9.885669499635696411e-02,2.389377951622009277e-01,5.701242387294769287e-02,-5.426913499832153320e-01,3.174804151058197021e-01,3.733143508434295654e-01,-5.357882976531982422e-01,2.930152975022792816e-02,1.188981533050537109e-01,5.150972604751586914e-01,3.181957900524139404e-01,-9.353128820657730103e-02,6.324109435081481934e-01,4.401774406433105469e-01,6.759460568428039551e-01,-1.370582729578018188e-01,2.202503234148025513e-01,-2.108639478683471680e-02,-3.175474405288696289e-01,-4.031696915626525879e-02,7.871615886688232422e-01,1.729181259870529175e-01,-3.726456686854362488e-02,1.155161485075950623e-01,4.121387749910354614e-02,8.665453195571899414e-01,7.289557904005050659e-02,1.922437697649002075e-01,-1.193636283278465271e-01,1.823879182338714600e-01,6.092917919158935547e-01,3.831893801689147949e-01,-5.912253633141517639e-02,5.266301631927490234e-01,1.776485890150070190e-01,-7.224376201629638672e-01,-1.341540068387985229e-01,4.628985524177551270e-01,-3.836341202259063721e-02,-1.729287765920162201e-02,-5.336073040962219238e-02,5.358474254608154297e-01,5.646884441375732422e-01,-1.454353332519531250e-01,4.505265951156616211e-01,4.645133018493652344e-01,-1.816574335098266602e-01,6.068488955497741699e-01,3.590218126773834229e-01,-1.305725984275341034e-02,3.580764308571815491e-02,-1.059729307889938354e-01,7.022020220756530762e-02,-7.489562034606933594e-02,-1.282845437526702881e-01,-2.842296361923217773e-01,-7.227740287780761719e-01,3.732217550277709961e-01,2.430453449487686157e-01,},{-7.367553189396858215e-03,2.443533688783645630e-01,3.763671591877937317e-02,-6.286127865314483643e-02,-4.536521434783935547e-01,-2.516527175903320312e-01,-2.994643524289131165e-02,-2.011433541774749756e-01,4.177402853965759277e-01,4.207414090633392334e-01,-6.836546212434768677e-02,1.257836371660232544e-01,-1.210060045123100281e-01,3.377144038677215576e-01,-2.136071771383285522e-01,1.126476898789405823e-01,-6.724306847900152206e-03,-2.628405690193176270e-01,-3.814558088779449463e-01,-4.170536100864410400e-01,1.339691728353500366e-01,-5.629402995109558105e-01,-3.368746861815452576e-02,3.165781199932098389e-01,-4.371143877506256104e-02,-1.510320901870727539e-01,1.572216302156448364e-01,3.314900025725364685e-02,-2.089298069477081299e-01,3.674975931644439697e-01,-2.888122200965881348e-01,4.368573054671287537e-02,1.382846534252166748e-01,-1.919077336788177490e-01,6.580432504415512085e-02,-5.301902294158935547e-01,2.180944383144378662e-01,-8.702165633440017700e-02,-8.383620381355285645e-01,1.819539070129394531e-01,5.858679413795471191e-01,5.209429860115051270e-01,-1.889811158180236816e-01,5.912714004516601562e-01,-1.162623316049575806e-01,-6.078140810132026672e-02,-9.082272648811340332e-02,-2.616455852985382080e-01,9.956248104572296143e-02,-5.415265560150146484e-01,-1.090930625796318054e-01,-5.179843902587890625e-01,3.355626389384269714e-02,-2.269857972860336304e-01,3.220485746860504150e-01,-4.114788174629211426e-01,-2.427042126655578613e-01,3.487106263637542725e-01,-1.377696096897125244e-01,-2.554669380187988281e-01,-1.384148839861154556e-02,2.565674483776092529e-01,-8.861587941646575928e-02,-8.513686060905456543e-02,},{2.070054858922958374e-01,5.207487344741821289e-01,-3.936265110969543457e-01,7.910651713609695435e-02,-3.183653652667999268e-01,-2.836364805698394775e-01,1.880396753549575806e-01,-1.135206744074821472e-01,1.513570398092269897e-01,8.774948306381702423e-03,-6.356686353683471680e-02,6.849583983421325684e-02,3.896739184856414795e-01,4.482482075691223145e-01,4.629399254918098450e-02,-1.938262730836868286e-01,2.033584117889404297e-01,-2.201788574457168579e-01,8.176835626363754272e-02,-2.718805670738220215e-01,1.319733709096908569e-01,-4.007551446557044983e-02,1.272851228713989258e-01,-1.454194337129592896e-01,1.338349729776382446e-01,2.853406071662902832e-01,1.411377638578414917e-01,4.282234907150268555e-01,1.932003498077392578e-01,5.711113810539245605e-01,8.695209026336669922e-02,2.264665961265563965e-01,-1.686538010835647583e-02,-1.468053162097930908e-01,-1.074703857302665710e-01,-1.765744537115097046e-01,-2.287448346614837646e-01,4.224955290555953979e-02,-4.673172235488891602e-01,3.625915944576263428e-01,1.014340743422508240e-01,-6.766592264175415039e-01,-1.414078623056411743e-01,-2.782816253602504730e-02,-1.288974583148956299e-01,-1.175778731703758240e-01,3.428585529327392578e-01,1.361928433179855347e-01,1.903567761182785034e-01,7.560186088085174561e-02,-3.294730186462402344e-01,1.012706980109214783e-01,-1.425803303718566895e-01,-7.296543568372726440e-02,3.061258047819137573e-02,-4.017593711614608765e-02,-4.926162213087081909e-02,7.659039460122585297e-03,-2.420864999294281006e-02,-1.288208067417144775e-01,-2.596742212772369385e-01,1.323715448379516602e-01,4.680127021856606007e-04,2.857632637023925781e-01,},{1.047835946083068848e+00,-6.483078002929687500e-01,1.631591701880097389e-03,4.051220417022705078e-01,5.801380053162574768e-02,-5.626527667045593262e-01,-1.315144747495651245e-01,3.679243922233581543e-01,1.008373051881790161e-01,1.449928879737854004e-01,8.000344038009643555e-02,4.226423799991607666e-01,-5.281401276588439941e-01,-4.264590740203857422e-01,2.956062853336334229e-01,5.353513956069946289e-01,-9.288802146911621094e-01,-4.886499047279357910e-02,4.404291808605194092e-01,-1.164642572402954102e-01,-3.036175668239593506e-01,-8.651865720748901367e-01,3.145172595977783203e-01,3.661698102951049805e-01,-6.639192104339599609e-01,5.881797075271606445e-01,4.301693141460418701e-01,-2.557350695133209229e-01,-3.476299643516540527e-01,1.101198196411132812e+00,2.134593576192855835e-01,-1.369028836488723755e-01,3.043038249015808105e-01,-1.067817330360412598e+00,-6.656572818756103516e-01,1.780996769666671753e-01,6.037224531173706055e-01,3.785251975059509277e-01,-4.059134125709533691e-01,3.947961032390594482e-01,1.409193575382232666e-01,-5.071563720703125000e-01,1.622030138969421387e-01,3.151175677776336670e-01,4.903921186923980713e-01,-5.822417140007019043e-01,-3.550438582897186279e-01,9.921405911445617676e-01,2.610730826854705811e-01,3.463950380682945251e-02,2.916661798954010010e-01,2.257654070854187012e-01,1.040563702583312988e+00,3.965823650360107422e-01,5.116454362869262695e-01,-8.051559329032897949e-01,4.062676429748535156e-01,3.481629490852355957e-01,6.705287694931030273e-01,4.608345031738281250e-01,-1.504458487033843994e-01,-6.741092801094055176e-01,5.349978804588317871e-01,1.243988797068595886e-01,},{4.104677587747573853e-02,2.267762273550033569e-01,1.258911043405532837e-01,2.651963233947753906e-01,-2.790232598781585693e-01,4.957683850079774857e-03,-3.252492845058441162e-02,-2.427087128162384033e-01,1.202915459871292114e-01,-4.465906322002410889e-01,-2.177210450172424316e-01,7.833731919527053833e-02,-1.904073953628540039e-01,-4.095847010612487793e-01,-1.653203517198562622e-01,-2.442649751901626587e-01,1.126519516110420227e-01,1.035668551921844482e-01,6.180675327777862549e-02,2.310759276151657104e-01,1.311019957065582275e-01,1.575655788183212280e-01,8.501359261572360992e-03,-2.252240478992462158e-01,2.287256270647048950e-01,1.113831810653209686e-02,6.465762853622436523e-01,-4.154882133007049561e-01,-1.127758249640464783e-01,-1.703932695090770721e-02,2.346725314855575562e-01,-1.152694672346115112e-01,1.763149946928024292e-01,-2.559051811695098877e-01,1.221270337700843811e-01,-4.158415272831916809e-02,-2.426623106002807617e-01,2.933442294597625732e-01,2.148507982492446899e-01,5.049704909324645996e-01,3.704842329025268555e-01,1.242811232805252075e-01,-1.622965186834335327e-02,5.603408440947532654e-02,-1.512223929166793823e-01,-5.094376802444458008e-01,1.433246284723281860e-01,-1.971379965543746948e-01,-3.132650256156921387e-01,-2.415234148502349854e-01,6.434898376464843750e-01,-2.274378240108489990e-01,2.122343629598617554e-01,1.565346121788024902e-02,5.695016384124755859e-01,-3.824171721935272217e-01,1.987110674381256104e-01,1.231289654970169067e-01,1.508237421512603760e-01,7.564905285835266113e-02,-3.736271560192108154e-01,-2.578469514846801758e-01,-4.308125376701354980e-01,-3.092101812362670898e-01,},{-1.084633618593215942e-01,-7.626355886459350586e-01,-3.299939930438995361e-01,1.982014924287796021e-01,2.838745415210723877e-01,-1.505238562822341919e-01,3.006498515605926514e-01,-5.494555830955505371e-01,-2.035549469292163849e-02,-3.712735176086425781e-01,-3.539637327194213867e-01,3.548968136310577393e-01,-1.846509128808975220e-01,-4.524607658386230469e-01,-3.711395859718322754e-01,2.000441998243331909e-01,5.606840252876281738e-01,-2.977642416954040527e-01,-2.334617674350738525e-01,-3.123498260974884033e-01,-8.359487354755401611e-02,4.364667460322380066e-02,-1.591717079281806946e-02,-1.427823603153228760e-01,3.978469967842102051e-01,-6.830926537513732910e-01,1.456560790538787842e-01,-8.436158299446105957e-02,2.707520127296447754e-01,9.884986281394958496e-02,-8.207920193672180176e-01,-4.205197095870971680e-01,8.797178417444229126e-02,4.969055652618408203e-01,-3.972316980361938477e-01,1.776538975536823273e-02,6.025839224457740784e-02,1.767137274146080017e-02,-2.697413861751556396e-01,2.622017562389373779e-01,2.191674113273620605e-01,1.437587589025497437e-01,-1.564577519893646240e-01,3.321910500526428223e-01,1.486850380897521973e-01,-2.659703791141510010e-01,-2.799578011035919189e-01,-1.116009578108787537e-01,1.441864520311355591e-01,-8.046287298202514648e-02,8.005223274230957031e-01,-6.228557825088500977e-01,-3.462295234203338623e-01,-6.710801273584365845e-02,-5.173222720623016357e-02,1.083097383379936218e-01,-2.910281121730804443e-01,-5.954177379608154297e-01,-5.821753144264221191e-01,2.195396125316619873e-01,-2.159367650747299194e-01,6.840296983718872070e-01,1.451676934957504272e-01,2.813264168798923492e-02,},{2.955240309238433838e-01,-3.801969885826110840e-01,-1.029421836137771606e-01,-2.865315675735473633e-01,2.633827030658721924e-01,2.676242887973785400e-01,1.961963325738906860e-01,1.681251972913742065e-01,7.644136995077133179e-02,-2.169583886861801147e-01,4.081825539469718933e-02,1.010431498289108276e-01,-1.481062918901443481e-01,1.788585931062698364e-01,9.164345264434814453e-02,-4.953360185027122498e-02,-4.867121279239654541e-01,-1.626874059438705444e-01,-3.151141405105590820e-01,8.754748851060867310e-02,-4.206405878067016602e-01,-4.909770796075463295e-04,3.035673797130584717e-01,-2.998986840248107910e-01,-2.659386992454528809e-01,-3.296386450529098511e-02,-1.688443124294281006e-01,-1.792060956358909607e-02,-9.196530282497406006e-02,-2.367902994155883789e-01,-3.576884791254997253e-02,2.903562784194946289e-01,5.820996314287185669e-02,-1.794765703380107880e-02,8.236898481845855713e-02,-1.195969581604003906e-01,5.500147119164466858e-02,9.498260170221328735e-02,-5.729219317436218262e-01,3.738074004650115967e-01,2.399273514747619629e-01,2.897367067635059357e-02,3.906634747982025146e-01,-1.834223866462707520e-01,2.109481245279312134e-01,7.730556279420852661e-02,1.210446655750274658e-01,-9.149101376533508301e-01,-3.265914320945739746e-02,-3.732384443283081055e-01,-4.097077846527099609e-01,-6.650341749191284180e-01,-4.246574938297271729e-01,1.740858703851699829e-01,1.138479337096214294e-01,2.660087049007415771e-01,1.367794126272201538e-01,-5.869510583579540253e-03,-4.058854877948760986e-01,-1.225980594754219055e-01,1.624642312526702881e-01,3.028463013470172882e-02,-1.036701127886772156e-01,-1.372846364974975586e-01,},{-5.979465693235397339e-02,-7.680665254592895508e-01,-7.459169626235961914e-01,3.270810544490814209e-01,2.606864459812641144e-02,-3.923333585262298584e-01,2.215079516172409058e-01,-3.064196556806564331e-02,3.178705573081970215e-01,-4.267347753047943115e-01,-5.796806886792182922e-02,2.721572518348693848e-01,5.175326019525527954e-02,-5.223762243986129761e-02,-1.053295359015464783e-01,1.842722147703170776e-01,-7.172283530235290527e-01,-1.507205069065093994e-01,2.498045116662979126e-01,-5.690140128135681152e-01,1.942460387945175171e-01,-2.245350331068038940e-01,6.530565768480300903e-02,2.792265117168426514e-01,1.313402801752090454e-01,-1.799528747797012329e-01,1.347391866147518158e-02,-3.437210246920585632e-02,-1.932005733251571655e-01,9.054458141326904297e-02,-4.729555919766426086e-02,3.001534938812255859e-01,-1.292080581188201904e-01,-6.943671405315399170e-02,-2.155840843915939331e-01,-6.868365406990051270e-02,1.781062334775924683e-01,-9.756157547235488892e-02,-5.424025654792785645e-01,1.931455582380294800e-01,-1.817533373832702637e-01,-1.251200735569000244e-01,-1.944509893655776978e-01,5.238978266716003418e-01,2.911414206027984619e-01,-4.701755344867706299e-01,-2.590509951114654541e-01,4.499654471874237061e-01,-1.679693609476089478e-01,-8.343067765235900879e-02,1.181093230843544006e-01,-2.434335649013519287e-01,-2.429091632366180420e-01,3.395305201411247253e-02,1.271478980779647827e-01,-2.762576043605804443e-01,2.606420814990997314e-01,3.034635782241821289e-01,-1.339882910251617432e-01,3.253785967826843262e-01,-5.840578675270080566e-02,-8.056344091892242432e-02,-5.372672155499458313e-02,2.802534699440002441e-01,},{2.258449196815490723e-01,-4.514856636524200439e-01,5.119875669479370117e-01,1.985889226198196411e-01,-2.453463971614837646e-01,8.767987042665481567e-02,-4.051796495914459229e-01,-4.017875492572784424e-01,1.163950562477111816e+00,-7.855506539344787598e-01,-5.031458139419555664e-01,6.198296546936035156e-01,-2.442341744899749756e-01,8.708765730261802673e-03,-7.875764369964599609e-01,1.018397212028503418e-01,-1.222546100616455078e-01,-1.429630964994430542e-01,-2.298687100410461426e-01,-4.980024993419647217e-01,7.710172533988952637e-01,-3.583104312419891357e-01,7.789974808692932129e-01,-4.645231664180755615e-01,-1.142391413450241089e-01,-1.308862566947937012e-01,2.931463718414306641e-01,-6.405342817306518555e-01,-4.942671954631805420e-01,1.243376210331916809e-01,-3.975464105606079102e-01,1.182390898466110229e-01,-2.480140887200832367e-02,-2.855843901634216309e-01,-3.091420829296112061e-01,1.696949452161788940e-01,9.205904603004455566e-02,-7.305517792701721191e-02,-4.285072386264801025e-01,3.450409471988677979e-01,4.859763085842132568e-01,-4.328647553920745850e-01,-4.281278252601623535e-01,-1.876590400934219360e-01,2.668515741825103760e-01,1.182204633951187134e-01,1.267850492149591446e-02,-8.310713618993759155e-02,-2.736874520778656006e-01,-2.564524412155151367e-01,-3.454347550868988037e-01,6.722582131624221802e-02,4.285683333873748779e-01,5.945308804512023926e-01,7.341226935386657715e-01,-5.806294679641723633e-01,1.479574739933013916e-01,4.526153206825256348e-01,-5.601347982883453369e-02,2.058840095996856689e-01,-8.767420798540115356e-02,2.002501487731933594e-01,-4.376395791769027710e-02,2.260432206094264984e-02,},{-2.273104190826416016e-01,-4.748929142951965332e-01,2.425393313169479370e-01,5.213528275489807129e-01,8.918002843856811523e-01,1.621437519788742065e-01,-2.073809951543807983e-01,-1.324594914913177490e-01,-3.459720611572265625e-01,4.281021356582641602e-01,-2.186457440257072449e-02,-4.142994061112403870e-02,9.178555607795715332e-01,1.868053525686264038e-01,1.424431800842285156e-01,1.076161563396453857e-01,1.740936785936355591e-01,6.217242777347564697e-02,4.373866021633148193e-01,3.833495378494262695e-01,-8.150481581687927246e-01,8.269258737564086914e-01,-3.750389516353607178e-01,-4.605565685778856277e-03,-9.285271912813186646e-02,6.492697000503540039e-01,3.300037384033203125e-01,-5.357961654663085938e-01,-2.590792812407016754e-02,-1.057347774505615234e+00,5.096192955970764160e-01,-1.729366332292556763e-01,-2.092350572347640991e-01,-3.708630204200744629e-01,-2.706883847713470459e-01,5.718417167663574219e-01,3.469568789005279541e-01,9.581686854362487793e-01,4.061628282070159912e-01,1.984280347824096680e-01,-3.431105911731719971e-01,-3.019190430641174316e-01,4.358885586261749268e-01,-7.892228364944458008e-01,5.045919097028672695e-04,-2.888815477490425110e-02,-8.501363992691040039e-01,2.644662261009216309e-01,-3.470756113529205322e-01,1.068671107292175293e+00,5.301713198423385620e-02,5.314862132072448730e-01,5.613061785697937012e-01,1.594580113887786865e-01,-5.114578828215599060e-02,-3.937623277306556702e-02,2.068253010511398315e-01,2.842331118881702423e-02,2.549706399440765381e-01,4.376587569713592529e-01,4.829445481300354004e-01,-5.290805101394653320e-01,3.894216418266296387e-01,3.270965535193681717e-03,},{-5.655673742294311523e-01,3.353377804160118103e-02,1.223870813846588135e-01,1.721773445606231689e-01,-6.225340962409973145e-01,-1.971748173236846924e-01,-1.277112513780593872e-01,-7.379601895809173584e-02,4.418877363204956055e-01,-6.602280139923095703e-01,-2.782381772994995117e-01,7.119430303573608398e-01,-3.943703472614288330e-01,1.400283277034759521e-01,-3.263908922672271729e-01,-3.016818165779113770e-01,-3.001790940761566162e-01,-1.993703395128250122e-01,-2.153948843479156494e-01,-3.921701610088348389e-01,3.564414083957672119e-01,-6.470172107219696045e-02,3.568887710571289062e-01,-4.895435646176338196e-03,-1.249968186020851135e-01,-3.010474145412445068e-01,5.714399814605712891e-01,-5.088300704956054688e-01,-3.236041367053985596e-01,5.190643072128295898e-01,-7.780524343252182007e-02,1.323502883315086365e-02,-1.871406435966491699e-01,1.722602397203445435e-01,-5.388818979263305664e-01,6.227255240082740784e-02,1.627255976200103760e-02,3.608066216111183167e-02,-3.680855035781860352e-01,5.718362331390380859e-01,-7.981622219085693359e-02,-2.761434614658355713e-01,-3.268240690231323242e-01,-1.024288415908813477e+00,6.024031043052673340e-01,-4.272188842296600342e-01,1.570386439561843872e-02,-7.414600849151611328e-01,-2.336960583925247192e-01,3.725029826164245605e-01,-1.389907747507095337e-01,1.307889968156814575e-01,2.259255014359951019e-02,5.770926475524902344e-01,1.367899030447006226e-01,2.902658283710479736e-01,-3.195454180240631104e-01,4.994668811559677124e-02,2.700684070587158203e-01,6.659636646509170532e-02,3.867609426379203796e-02,2.668295800685882568e-01,1.965929120779037476e-01,2.023293226957321167e-01,},{5.987426042556762695e-01,2.204516232013702393e-01,1.974154636263847351e-02,-3.533976972103118896e-01,-5.130598321557044983e-02,2.823386788368225098e-01,7.005934119224548340e-01,-6.021219491958618164e-01,2.659155130386352539e-01,-7.107993364334106445e-01,-8.683535456657409668e-01,4.318850338459014893e-01,-5.520930886268615723e-01,-1.018009781837463379e+00,-5.396776199340820312e-01,-2.727227509021759033e-01,-6.278057098388671875e-01,-4.887896776199340820e-01,-9.500522017478942871e-01,3.592368215322494507e-02,3.967966139316558838e-01,-6.556673049926757812e-01,9.672232717275619507e-02,-9.867722988128662109e-01,-2.459929436445236206e-01,-4.856183528900146484e-01,2.480690330266952515e-01,-6.753279566764831543e-01,1.348306089639663696e-01,2.728181779384613037e-01,-8.853946924209594727e-01,-4.993712902069091797e-01,7.458225488662719727e-01,1.468532383441925049e-01,-3.650188148021697998e-01,9.473624080419540405e-02,-3.929612338542938232e-01,2.954618930816650391e-01,-5.136430263519287109e-01,1.011877894401550293e+00,5.005433559417724609e-01,-3.447735905647277832e-01,-2.504094541072845459e-01,-5.008604004979133606e-02,-2.369678318500518799e-01,-8.027806878089904785e-02,-1.637792289257049561e-01,-1.630331426858901978e-01,2.505637705326080322e-01,-3.966907262802124023e-01,5.116714239120483398e-01,-4.057708978652954102e-01,1.109986975789070129e-01,-3.724088370800018311e-01,2.240378558635711670e-01,-1.966145932674407959e-01,-7.443493604660034180e-02,1.662043184041976929e-01,2.386136353015899658e-01,-8.025723099708557129e-01,-5.679146051406860352e-01,3.819507062435150146e-01,2.810499966144561768e-01,-6.055227518081665039e-01,},{-2.082314342260360718e-01,4.024245142936706543e-01,3.984479308128356934e-01,-2.661052644252777100e-01,-6.890099495649337769e-02,-2.477607131004333496e-01,-5.827835798263549805e-01,-2.350888401269912720e-01,-1.549938321113586426e-01,2.637748420238494873e-01,1.055776514112949371e-02,3.686675131320953369e-01,-1.753728389739990234e-01,2.722552716732025146e-01,-2.525556981563568115e-01,1.185489520430564880e-01,3.758360743522644043e-01,-1.133188605308532715e-01,-4.672832489013671875e-01,-1.786977499723434448e-01,7.293207943439483643e-02,7.670106738805770874e-02,8.666352927684783936e-02,-8.200885355472564697e-02,-2.549531683325767517e-02,1.128394901752471924e-02,6.475584208965301514e-02,-4.681608378887176514e-01,-3.742928504943847656e-01,-1.767320632934570312e-01,-5.729085206985473633e-02,5.156375169754028320e-01,-4.298516511917114258e-01,-3.295747637748718262e-01,5.473600625991821289e-01,-4.659889936447143555e-01,1.507855504751205444e-01,-1.669468283653259277e-01,-1.369000375270843506e-01,1.735457777976989746e-01,-6.603935360908508301e-02,-5.427494272589683533e-02,-2.905164612457156181e-03,-7.276409119367599487e-02,5.534810200333595276e-02,4.406934976577758789e-01,-5.793867111206054688e-01,2.951632253825664520e-02,-4.645776748657226562e-01,-3.782112896442413330e-01,-1.773344874382019043e-01,-5.866201967000961304e-02,-3.538604378700256348e-01,2.723698318004608154e-01,1.226379275321960449e-01,1.206043437123298645e-01,-2.369440793991088867e-01,2.451759874820709229e-01,2.316152155399322510e-01,-3.084752336144447327e-02,7.811923325061798096e-02,4.799307882785797119e-02,-4.292795658111572266e-01,-2.555134296417236328e-01,},{-2.969456836581230164e-02,-3.802832067012786865e-01,9.056491404771804810e-02,8.504738807678222656e-01,-7.543547153472900391e-01,-3.665319383144378662e-01,-3.375648260116577148e-01,-1.812595278024673462e-01,7.308587431907653809e-01,-7.806768417358398438e-01,4.267471432685852051e-01,-2.320617623627185822e-02,-7.897616922855377197e-02,7.693563103675842285e-01,2.440450191497802734e-01,4.882995039224624634e-02,1.766297370195388794e-01,-1.116629466414451599e-01,1.443152427673339844e-01,-2.978991270065307617e-01,5.606329441070556641e-02,-6.290237903594970703e-01,-6.709351539611816406e-01,6.806163787841796875e-01,-2.618342041969299316e-01,-2.154075354337692261e-01,2.510147392749786377e-01,-4.726099371910095215e-01,-6.195005774497985840e-01,3.975348472595214844e-01,4.110539853572845459e-01,4.127176403999328613e-01,-7.344058156013488770e-01,-5.792822241783142090e-01,-5.477910637855529785e-01,-5.774033814668655396e-02,4.610916376113891602e-01,3.831920921802520752e-01,-4.259845018386840820e-01,-1.678356081247329712e-01,-3.465293943881988525e-01,4.022249951958656311e-02,-6.498362869024276733e-02,-1.197278127074241638e-01,7.620857357978820801e-01,-5.329705476760864258e-01,-2.443606555461883545e-01,1.235733777284622192e-01,-1.617872118949890137e-01,1.931696832180023193e-01,-4.198019206523895264e-02,5.779411196708679199e-01,2.767756879329681396e-01,-2.125899344682693481e-01,4.106581509113311768e-01,-7.709702849388122559e-01,2.039689868688583374e-01,5.916119217872619629e-01,5.969338417053222656e-01,6.528414487838745117e-01,3.608052730560302734e-01,-1.701220571994781494e-01,1.993105262517929077e-01,-7.205638289451599121e-01,},{2.073169499635696411e-01,-1.473049521446228027e-01,4.581382274627685547e-01,2.924866788089275360e-02,-1.183087378740310669e-01,4.935021102428436279e-01,-6.258491873741149902e-01,-3.551424145698547363e-01,-3.306328356266021729e-01,-4.620717167854309082e-01,9.580204635858535767e-02,-3.575150668621063232e-01,-1.150434613227844238e+00,3.958926796913146973e-01,4.264102578163146973e-01,3.481657505035400391e-01,-2.104530036449432373e-01,3.586097061634063721e-01,5.077956244349479675e-02,1.459363698959350586e-01,-4.534685015678405762e-01,-5.579423904418945312e-01,-5.376633405685424805e-01,5.169256329536437988e-01,-1.984253078699111938e-01,-1.307375282049179077e-01,3.836537003517150879e-01,-8.101854920387268066e-01,-2.682508528232574463e-01,2.576974034309387207e-01,6.294281780719757080e-02,5.073965787887573242e-01,3.535792231559753418e-01,-3.107980489730834961e-01,-4.289016127586364746e-01,-2.075738161802291870e-01,4.020115137100219727e-01,5.204594731330871582e-01,3.134740889072418213e-01,3.207905590534210205e-01,-7.613763213157653809e-02,1.790771782398223877e-01,1.121934875845909119e-01,-2.047950588166713715e-02,1.893648952245712280e-01,1.161110177636146545e-01,7.988908290863037109e-01,3.878011107444763184e-01,-4.740431308746337891e-01,1.338383108377456665e-01,1.936189830303192139e-01,-2.078396528959274292e-01,-4.278381168842315674e-02,1.337636113166809082e-01,4.122358262538909912e-01,-4.176071882247924805e-01,6.918419599533081055e-01,5.555722117424011230e-01,2.957896292209625244e-01,-1.781164556741714478e-01,-5.978457927703857422e-01,3.381610615178942680e-03,-3.759214580059051514e-01,4.125738516449928284e-02,},{5.373665094375610352e-01,3.562332093715667725e-01,-3.248688876628875732e-01,-2.641467154026031494e-01,-8.000931739807128906e-01,4.252313971519470215e-01,-6.033068895339965820e-01,1.154089644551277161e-01,-3.808047994971275330e-02,2.658281028270721436e-01,-9.230583906173706055e-02,-4.169266670942306519e-03,-8.956010937690734863e-01,1.554841846227645874e-01,-1.471188012510538101e-02,6.937347054481506348e-01,-3.254502713680267334e-01,2.029629349708557129e-01,-3.042007610201835632e-02,2.360508590936660767e-01,-2.824858427047729492e-01,3.407074809074401855e-01,5.928199887275695801e-01,-7.946891784667968750e-01,-4.031369686126708984e-01,9.877265691757202148e-01,-1.502104252576828003e-01,-1.283094435930252075e-01,-1.203959733247756958e-01,3.833225369453430176e-01,7.686526775360107422e-01,6.856841444969177246e-01,4.997899532318115234e-01,-5.860193371772766113e-01,2.057474479079246521e-02,-9.316978603601455688e-02,1.113908141851425171e-01,-4.897761344909667969e-01,3.418624997138977051e-01,3.062695860862731934e-01,-5.671057701110839844e-01,-3.552411869168281555e-02,-5.781881213188171387e-01,-8.762953877449035645e-01,7.590929269790649414e-01,-2.837272882461547852e-01,-2.482509911060333252e-01,-2.010081522166728973e-02,-8.531084656715393066e-02,4.759615659713745117e-01,-3.263052105903625488e-01,8.660572022199630737e-02,2.496774047613143921e-01,3.487004637718200684e-01,1.154445018619298935e-02,7.920356094837188721e-02,-7.562460005283355713e-02,1.645344793796539307e-01,4.106441736221313477e-01,3.338417112827301025e-01,-2.281424850225448608e-01,-3.337811529636383057e-01,6.406045556068420410e-01,-5.166579037904739380e-02,},{-2.812882661819458008e-01,1.839625239372253418e-01,-6.097685694694519043e-01,2.744076251983642578e-01,2.518451772630214691e-02,6.526882946491241455e-02,-5.820117592811584473e-01,-5.325102806091308594e-01,9.222677946090698242e-01,-5.321746468544006348e-01,-2.270185351371765137e-01,5.189333558082580566e-01,-1.225694864988327026e-01,-2.005746774375438690e-02,-1.890217810869216919e-01,1.988759338855743408e-01,2.426673024892807007e-01,-7.475169897079467773e-01,-4.063769578933715820e-01,-9.918381571769714355e-01,2.217530608177185059e-01,-5.354508012533187866e-02,1.062324047088623047e+00,3.185036480426788330e-01,2.058781497180461884e-02,-3.917597532272338867e-01,6.982168555259704590e-02,-2.245517820119857788e-01,-5.369176268577575684e-01,-1.703290268778800964e-02,-2.491312623023986816e-01,-1.221517547965049744e-01,-5.020567178726196289e-01,-2.284167557954788208e-01,-4.095340892672538757e-02,-5.921278521418571472e-02,-1.855769306421279907e-01,-3.963235914707183838e-01,-7.306863665580749512e-01,7.743829488754272461e-01,-2.528957650065422058e-02,-5.055001974105834961e-01,-2.456620186567306519e-01,-1.007270291447639465e-01,-1.785693168640136719e-01,4.159622639417648315e-02,2.182150483131408691e-01,-5.481604933738708496e-01,-4.104837477207183838e-01,1.883471459150314331e-01,4.099798500537872314e-01,-1.197377145290374756e-01,-3.633823394775390625e-01,-8.271540701389312744e-02,1.711311489343643188e-01,-3.332040011882781982e-01,4.041487276554107666e-01,3.833889663219451904e-01,-9.518595784902572632e-02,1.252980083227157593e-01,7.388091683387756348e-01,4.065536856651306152e-01,5.614884197711944580e-02,-3.625402152538299561e-01,},{6.290454268455505371e-01,4.904270470142364502e-01,-1.053145751357078552e-01,3.282868117094039917e-02,4.766243323683738708e-02,3.026009798049926758e-01,-8.538715541362762451e-02,-3.493788540363311768e-01,5.388485789299011230e-01,-3.320526480674743652e-01,1.566144824028015137e-01,-2.637003660202026367e-01,-7.240910530090332031e-01,2.592563629150390625e-01,1.963124126195907593e-01,3.403054475784301758e-01,-4.613057672977447510e-01,-2.565064728260040283e-01,-1.140217855572700500e-01,-2.199137806892395020e-01,5.014743283390998840e-02,3.194660842418670654e-01,1.208486407995223999e-01,-1.996209472417831421e-02,-2.806464433670043945e-01,3.247536420822143555e-01,9.055167436599731445e-02,-2.106226682662963867e-01,-5.901964902877807617e-01,-1.182707846164703369e-01,1.550218611955642700e-01,2.671142220497131348e-01,1.328579336404800415e-01,-7.415409684181213379e-01,2.573769688606262207e-01,1.286910176277160645e-01,1.876135468482971191e-01,4.917679727077484131e-02,-1.674225479364395142e-01,3.805468082427978516e-01,-5.472259521484375000e-01,-8.105157017707824707e-01,-2.345974743366241455e-01,-2.230416089296340942e-01,-1.349471211433410645e-01,1.006441563367843628e-01,5.127403736114501953e-01,-9.091691672801971436e-02,-1.845675557851791382e-01,3.570696413516998291e-01,-3.308140486478805542e-02,3.999993950128555298e-02,1.874713450670242310e-01,4.950635135173797607e-01,6.078549101948738098e-02,-8.904901146888732910e-02,-2.066244482994079590e-01,6.180506944656372070e-01,2.496698796749114990e-01,-1.523576490581035614e-02,4.975065588951110840e-01,-1.467166692018508911e-01,4.176977276802062988e-01,-2.977865636348724365e-01,},{-8.716745674610137939e-02,-3.410982191562652588e-01,2.459104210138320923e-01,4.671304225921630859e-01,7.593727111816406250e-01,-1.806652545928955078e-01,-6.921287626028060913e-02,5.696653723716735840e-01,-1.435916870832443237e-01,4.479854404926300049e-01,8.441882729530334473e-01,8.546195179224014282e-02,-4.359955787658691406e-01,-1.780464351177215576e-01,-5.413115620613098145e-01,1.950983107089996338e-01,-1.815679520368576050e-01,2.149288505315780640e-01,1.498499035835266113e+00,-3.680619224905967712e-02,-7.914566397666931152e-01,-2.331268489360809326e-01,-2.563829421997070312e-01,1.159179210662841797e-01,-3.386062085628509521e-01,2.368247807025909424e-01,7.565873861312866211e-02,3.068194985389709473e-01,-1.726571619510650635e-01,-1.388239711523056030e-01,7.279016971588134766e-01,3.284894526004791260e-01,-7.923755645751953125e-01,-2.125054895877838135e-01,-1.958964914083480835e-01,6.257654428482055664e-01,3.938283622264862061e-01,-9.491916745901107788e-02,9.913417696952819824e-01,-9.872940927743911743e-02,-2.420282959938049316e-01,-3.261860832571983337e-02,5.458937287330627441e-01,-2.114389687776565552e-01,3.231745660305023193e-01,2.787342760711908340e-03,1.925712265074253082e-02,1.572840213775634766e-01,2.754310071468353271e-01,2.947570681571960449e-01,-1.267047077417373657e-01,-1.916548907756805420e-01,4.748267233371734619e-01,5.384743809700012207e-01,-3.605807423591613770e-01,5.191726088523864746e-01,4.480995833873748779e-01,5.689259171485900879e-01,-9.743661433458328247e-02,5.498698949813842773e-01,6.371848285198211670e-02,-8.320412039756774902e-01,2.482463270425796509e-01,7.716386914253234863e-01,},{4.990708827972412109e-02,4.477358162403106689e-01,3.148037493228912354e-01,-1.844112724065780640e-01,-6.003842353820800781e-01,4.605625197291374207e-02,6.440446525812149048e-02,-9.464447386562824249e-03,2.318963408470153809e-01,-4.695093631744384766e-01,-6.526710838079452515e-02,1.419155597686767578e-01,-8.494894206523895264e-02,4.946869984269142151e-02,6.506714224815368652e-02,2.481427490711212158e-01,3.424104154109954834e-01,-2.986201345920562744e-01,-1.322969645261764526e-01,-2.024666219949722290e-01,6.229825615882873535e-01,-2.457123249769210815e-01,5.390462875366210938e-01,6.516686175018548965e-03,-2.776625752449035645e-01,-2.880242168903350830e-01,2.785597145557403564e-01,-4.879378378391265869e-01,-3.280327022075653076e-01,-1.427816879004240036e-02,-7.251242548227310181e-02,2.894548177719116211e-01,8.973670750856399536e-02,-2.413198947906494141e-01,-2.987108230590820312e-01,4.796508327126502991e-02,2.547852396965026855e-01,-2.059074938297271729e-01,-3.232814669609069824e-01,2.162048220634460449e-01,-2.649323046207427979e-01,-8.550989627838134766e-01,-3.249530196189880371e-01,-5.075522065162658691e-01,-1.355107873678207397e-01,1.624659150838851929e-01,5.277730226516723633e-01,9.675631672143936157e-02,1.887193322181701660e-01,-3.255064487457275391e-01,-1.148383170366287231e-01,-1.107398793101310730e-01,-3.883960247039794922e-01,1.552610248327255249e-01,2.051716297864913940e-01,-9.817531704902648926e-02,-1.535044908523559570e-01,3.383980095386505127e-01,-2.358460566028952599e-03,-3.820953667163848877e-01,2.092045545578002930e-01,-4.355173185467720032e-02,-6.470443308353424072e-02,3.534482121467590332e-01,},{3.130593299865722656e-01,1.335487663745880127e-01,1.507127881050109863e-01,-3.120782375335693359e-01,-1.547114402055740356e-01,9.913411736488342285e-02,2.536895573139190674e-01,-4.525462687015533447e-01,6.348959803581237793e-01,-9.409531950950622559e-02,-5.720271170139312744e-02,-2.865944206714630127e-01,-7.386385202407836914e-01,-4.904008507728576660e-01,1.819064617156982422e-01,-5.249452590942382812e-01,7.184750586748123169e-02,-1.305531561374664307e-01,-3.843966722488403320e-01,-4.036281704902648926e-01,3.978866934776306152e-01,-1.262905299663543701e-01,2.319271266460418701e-01,-5.960478782653808594e-01,4.960921034216880798e-02,-2.279752939939498901e-01,1.688132733106613159e-01,-8.440554141998291016e-02,-2.848642766475677490e-01,6.066103279590606689e-02,-3.518887981772422791e-02,-1.328259259462356567e-01,2.201255857944488525e-01,-8.905766606330871582e-01,-4.797592461109161377e-01,-5.242949724197387695e-01,-2.427970468997955322e-01,9.192193299531936646e-02,-2.251026183366775513e-01,9.466820359230041504e-01,-1.708627194166183472e-01,-3.301659822463989258e-01,4.571189638227224350e-03,2.644030191004276276e-02,-2.754334360361099243e-02,-3.879834339022636414e-02,4.293900430202484131e-01,-1.014531701803207397e-01,2.521663010120391846e-01,-2.266336232423782349e-04,3.991079926490783691e-01,1.426521241664886475e-01,-1.832370460033416748e-01,2.520303428173065186e-01,4.054900109767913818e-01,-3.174479007720947266e-01,-3.772667646408081055e-01,-1.336432844400405884e-01,3.297130763530731201e-01,-2.460001260042190552e-01,6.274998933076858521e-02,-1.974865049123764038e-01,1.076323390007019043e-01,1.393948644399642944e-01,},{1.627334803342819214e-01,-5.834395289421081543e-01,9.570745229721069336e-01,2.281944751739501953e-01,-2.077229553833603859e-03,1.254149377346038818e-01,-2.518651187419891357e-01,2.861140966415405273e-01,4.360246956348419189e-01,-9.374979883432388306e-02,2.701843380928039551e-01,3.625111579895019531e-01,-5.033202767372131348e-01,-3.164368271827697754e-01,1.435894519090652466e-01,2.549319267272949219e-01,-1.143447756767272949e-01,4.421636462211608887e-03,3.269290030002593994e-01,-1.893217712640762329e-01,-2.690621316432952881e-01,-6.508898735046386719e-01,-2.280313074588775635e-01,2.803851962089538574e-01,-2.830475866794586182e-01,-2.298119664192199707e-01,6.101927906274795532e-02,-2.953152954578399658e-01,-4.038639962673187256e-01,5.810108184814453125e-01,2.780855894088745117e-01,-1.214260384440422058e-01,-2.926089167594909668e-01,2.113314159214496613e-02,-4.344757497310638428e-01,9.162761569023132324e-01,4.539256095886230469e-01,3.425667881965637207e-01,-2.671782076358795166e-01,1.804412603378295898e-01,6.440273951739072800e-03,-3.595180213451385498e-01,1.461403369903564453e-01,6.738733649253845215e-01,2.552470862865447998e-01,-3.329436480998992920e-01,-4.427491500973701477e-02,2.578001022338867188e-01,-3.389165699481964111e-01,5.828074365854263306e-02,2.349057346582412720e-01,6.160423159599304199e-01,4.688567519187927246e-01,2.747907936573028564e-01,5.493996143341064453e-01,-5.775863528251647949e-01,2.661705613136291504e-01,5.548896193504333496e-01,-7.723497599363327026e-02,1.557515859603881836e-01,4.614919722080230713e-01,-3.717871904373168945e-01,2.063317149877548218e-01,1.810661107301712036e-01,},{-3.133135139942169189e-01,4.508689045906066895e-02,5.147140100598335266e-02,-7.558507919311523438e-01,1.903495341539382935e-01,1.271048039197921753e-01,1.407890170812606812e-01,-7.922238856554031372e-02,1.142149865627288818e-01,-2.716698646545410156e-01,2.694555222988128662e-01,-1.229337751865386963e-01,-1.256920993328094482e-01,1.027703583240509033e-01,-4.278012216091156006e-01,-2.262983173131942749e-01,-9.471938759088516235e-02,-8.882846683263778687e-03,-2.076075375080108643e-01,-3.607384562492370605e-01,4.038012921810150146e-01,2.879102230072021484e-01,-1.751546263694763184e-01,-4.014215767383575439e-01,1.362446397542953491e-01,-9.150585532188415527e-02,2.179414033889770508e-01,8.316028118133544922e-02,1.124028768390417099e-02,-7.084367424249649048e-02,1.760620623826980591e-01,7.096782326698303223e-02,-1.693989038467407227e-01,2.106516659259796143e-01,-2.952858619391918182e-02,1.152064502239227295e-01,-5.701525136828422546e-02,-8.609741181135177612e-02,-4.477272331714630127e-01,3.506655097007751465e-01,2.815362215042114258e-01,-1.291333884000778198e-01,-2.232787311077117920e-01,1.876718401908874512e-01,-1.709162443876266479e-01,3.918312489986419678e-01,5.136564373970031738e-01,-9.786438196897506714e-02,1.673559397459030151e-01,1.692315936088562012e-01,7.493687421083450317e-02,-1.360594332218170166e-01,-4.214581251144409180e-01,1.112569794058799744e-01,1.909297108650207520e-01,-2.334133833646774292e-01,-5.809626728296279907e-02,-3.534368574619293213e-01,-5.754548311233520508e-02,-2.630415856838226318e-01,1.405659317970275879e-01,6.135096028447151184e-02,7.885196059942245483e-02,1.772409379482269287e-01,},{-2.161525040864944458e-01,1.590324938297271729e-01,3.429122567176818848e-01,-1.505167782306671143e-01,3.528576791286468506e-01,-7.199324667453765869e-02,-1.941625028848648071e-01,2.566993832588195801e-01,1.036190465092658997e-01,-1.851995736360549927e-01,3.851366043090820312e-01,-2.431892305612564087e-01,-4.305626749992370605e-01,-4.524915218353271484e-01,1.456781327724456787e-01,1.717428863048553467e-01,1.950449943542480469e-01,-3.800179809331893921e-02,1.267179548740386963e-01,6.439390033483505249e-02,-3.207417130470275879e-01,-5.051414296030998230e-02,1.350213885307312012e-01,-3.080212175846099854e-01,-5.553461313247680664e-01,5.989039689302444458e-02,4.464385509490966797e-01,-7.118051648139953613e-01,-4.421037733554840088e-01,5.790550708770751953e-01,2.821451425552368164e-01,2.844029068946838379e-01,-2.021303959190845490e-02,-6.355091333389282227e-01,-6.337794661521911621e-02,2.216203510761260986e-01,3.894455134868621826e-01,-2.758891880512237549e-01,1.267169695347547531e-02,4.838801622390747070e-01,-6.557622458785772324e-03,-5.646243691444396973e-01,-4.769526887685060501e-03,-3.118019700050354004e-01,2.120098620653152466e-01,2.057701945304870605e-01,8.503440618515014648e-01,-5.540623888373374939e-02,1.998848170042037964e-01,-1.653206199407577515e-01,1.897742450237274170e-01,6.070408597588539124e-02,1.231801807880401611e-01,3.175690472126007080e-01,8.263737559318542480e-01,7.876751944422721863e-03,9.699369966983795166e-02,2.775290012359619141e-01,-3.387173712253570557e-01,2.767185680568218231e-02,-3.817333579063415527e-01,-3.207064867019653320e-01,1.785852760076522827e-01,2.177452743053436279e-01,},{1.729034483432769775e-01,7.060447931289672852e-01,-8.695117384195327759e-02,-7.022590190172195435e-02,-4.242858588695526123e-01,-2.723709940910339355e-01,-4.060945212841033936e-01,4.766808822751045227e-02,7.215199619531631470e-02,-1.966540515422821045e-01,9.027557820081710815e-02,5.675646010786294937e-03,-2.892292663455009460e-02,8.669372797012329102e-01,2.252419888973236084e-01,2.172051370143890381e-01,-1.677937060594558716e-01,-1.565433591604232788e-01,5.819441005587577820e-02,-1.605705618858337402e-01,1.016293913125991821e-01,-4.044094681739807129e-01,-2.894035726785659790e-02,-1.936949193477630615e-01,-7.940277457237243652e-01,4.981958866119384766e-01,1.702854037284851074e-01,-2.620217800140380859e-01,-7.368127107620239258e-01,7.304932475090026855e-01,-2.143379068002104759e-03,5.428823232650756836e-01,5.680345743894577026e-02,-1.135867595672607422e+00,2.222351133823394775e-01,-5.632238984107971191e-01,1.609380245208740234e-01,-2.312587797641754150e-01,-3.924621939659118652e-01,7.028229832649230957e-01,-2.279688566923141479e-01,-1.345849275588989258e+00,-5.669365450739860535e-02,-3.932220637798309326e-01,-4.012359082698822021e-01,4.051555395126342773e-01,6.448027491569519043e-01,-6.261111795902252197e-02,1.138895377516746521e-01,8.777812123298645020e-02,-1.971675455570220947e-01,-1.579325646162033081e-01,-3.780972957611083984e-01,7.861616611480712891e-01,1.811365932226181030e-01,-4.519615471363067627e-01,-6.444903463125228882e-02,9.046547412872314453e-01,-1.944204419851303101e-02,9.528340399265289307e-02,6.717389076948165894e-02,-3.040895164012908936e-01,4.209041595458984375e-01,2.618983201682567596e-02,},{-1.189265865832567215e-02,-1.834800243377685547e-01,6.778799891471862793e-01,1.524444073438644409e-01,-1.962193101644515991e-01,3.604909479618072510e-01,-7.826194912195205688e-02,-3.795584663748741150e-02,1.876164376735687256e-01,4.694107770919799805e-01,-1.339189708232879639e-01,-9.662477374076843262e-01,-2.666552364826202393e-01,3.267932534217834473e-01,9.845101833343505859e-02,2.072008997201919556e-01,-4.273834526538848877e-01,-2.026464976370334625e-02,2.945787310600280762e-01,3.018179833889007568e-01,-1.247612386941909790e-01,3.417953848838806152e-01,-4.043374359607696533e-01,-6.101956963539123535e-01,-6.104794740676879883e-01,2.718963921070098877e-01,3.071582317352294922e-01,-2.795846760272979736e-01,-3.983988761901855469e-01,-7.010223865509033203e-01,3.016037940979003906e-01,2.993370592594146729e-01,1.389558911323547363e-01,-4.601165056228637695e-01,1.680128127336502075e-01,-3.776700422167778015e-02,2.469735443592071533e-01,5.360583662986755371e-01,2.305034995079040527e-01,1.737062782049179077e-01,-2.535730898380279541e-01,-5.144340991973876953e-01,1.274951696395874023e-01,-6.910704374313354492e-01,2.691976428031921387e-01,-1.145650967955589294e-01,1.688700169324874878e-01,-3.205140233039855957e-01,1.346901804208755493e-01,1.407047212123870850e-01,-4.380927979946136475e-01,4.041514396667480469e-01,1.969550251960754395e-01,7.186225652694702148e-01,1.123788133263587952e-01,-2.381103187799453735e-01,4.569506049156188965e-01,3.658075034618377686e-01,1.703085899353027344e-01,4.853933677077293396e-02,-1.163227334618568420e-01,-3.466932475566864014e-01,3.795365393161773682e-01,9.487348198890686035e-01,},{-1.790401637554168701e-01,4.183340370655059814e-01,-4.407472014427185059e-01,-2.764810621738433838e-01,-1.811175048351287842e-01,3.144642412662506104e-01,3.262254297733306885e-01,-3.261939585208892822e-01,-4.495028257369995117e-01,-2.852245271205902100e-01,5.966174602508544922e-02,3.622003495693206787e-01,-4.384174942970275879e-01,-1.304638981819152832e+00,8.077639504335820675e-04,8.053889870643615723e-02,1.121718212962150574e-01,2.341415174305438995e-02,-8.296098560094833374e-02,3.032385110855102539e-01,-4.092215001583099365e-02,1.825773417949676514e-01,1.874930709600448608e-01,-2.355174422264099121e-01,-1.625217348337173462e-01,-2.769033014774322510e-01,1.669569523073732853e-03,-9.818387776613235474e-02,-7.131653428077697754e-01,1.564083062112331390e-02,-1.634387485682964325e-02,-6.828597784042358398e-01,-2.230974733829498291e-01,-7.305772602558135986e-02,-2.811847627162933350e-01,-4.830201715230941772e-02,8.227332681417465210e-02,3.229674696922302246e-01,1.418334245681762695e-01,6.658393740653991699e-01,-3.416116237640380859e-01,-1.052405834197998047e+00,9.020132571458816528e-02,-7.222266793251037598e-01,3.887796700000762939e-01,-2.783309221267700195e-01,-6.214260458946228027e-01,9.952708333730697632e-02,-5.920214578509330750e-02,2.569392509758472443e-02,3.879637420177459717e-01,2.490673363208770752e-01,-2.404279857873916626e-01,6.400499939918518066e-01,3.618698716163635254e-01,4.281761050224304199e-01,-7.490021586418151855e-01,-2.701879739761352539e-01,1.459104120731353760e-01,-1.231084316968917847e-01,2.523163855075836182e-01,2.078814655542373657e-01,7.216973602771759033e-02,-6.096518039703369141e-01,},{-4.060203731060028076e-01,-5.386074781417846680e-01,1.245604977011680603e-01,-5.612108111381530762e-02,3.376559615135192871e-01,1.300032436847686768e-01,-1.846232265233993530e-01,-2.332709729671478271e-02,9.618479013442993164e-01,-3.577020764350891113e-01,3.079882264137268066e-01,2.620320618152618408e-01,-1.532290577888488770e-01,2.445578277111053467e-01,-4.376495182514190674e-01,4.644755423069000244e-01,1.613266468048095703e-01,-9.549292922019958496e-02,4.777593910694122314e-01,8.971674740314483643e-02,-5.826562047004699707e-01,-5.541341304779052734e-01,4.780064225196838379e-01,1.945271939039230347e-01,-4.027011990547180176e-01,-2.382112890481948853e-01,-7.862190902233123779e-02,8.715908974409103394e-02,-3.662705421447753906e-01,-1.351021230220794678e-01,1.986821740865707397e-01,2.223730534315109253e-01,2.099860310554504395e-01,-4.924436807632446289e-01,-1.455048471689224243e-01,2.357705086469650269e-01,1.696576327085494995e-01,-4.634625092148780823e-02,-2.425671964883804321e-01,1.588658243417739868e-01,5.171206593513488770e-01,-5.024656653404235840e-01,3.808278739452362061e-01,-8.065793663263320923e-02,2.898853458464145660e-02,-1.969392001628875732e-01,-2.010091990232467651e-01,-6.745113730430603027e-01,-1.260186433792114258e-01,1.207190603017807007e-01,3.397437334060668945e-01,1.337175369262695312e-01,5.741073563694953918e-02,3.149709105491638184e-01,-1.826343536376953125e-01,-8.065647631883621216e-02,-1.065713465213775635e-01,3.818499445915222168e-01,-4.387204349040985107e-01,-9.832726418972015381e-02,6.449675559997558594e-01,-1.921707391738891602e-02,3.554326295852661133e-01,1.614840179681777954e-01,},{1.976878754794597626e-02,2.010660171508789062e-01,8.820917606353759766e-01,7.900608181953430176e-01,-6.339468061923980713e-02,-3.584268689155578613e-01,-1.325358003377914429e-01,5.339642167091369629e-01,1.073227673768997192e-01,-1.400868445634841919e-01,8.044312000274658203e-01,-3.027277588844299316e-01,-1.319343447685241699e-01,4.544921591877937317e-02,1.035161137580871582e+00,8.983602374792098999e-02,-8.310774564743041992e-01,-2.741133272647857666e-01,6.745973825454711914e-01,3.632173538208007812e-01,2.963646054267883301e-01,-5.661411285400390625e-01,-4.247173070907592773e-01,8.633028715848922729e-02,-3.269378244876861572e-01,1.969610601663589478e-01,3.023186512291431427e-02,1.005013883113861084e-01,-4.991516768932342529e-01,1.299214810132980347e-01,1.103444337844848633e+00,1.854030340909957886e-01,-7.086988687515258789e-01,-4.246309697628021240e-01,-6.342005729675292969e-01,1.104807257652282715e+00,6.346720457077026367e-01,-2.026440352201461792e-01,-1.989261358976364136e-01,-2.109292000532150269e-01,-4.808352589607238770e-01,-6.117619872093200684e-01,6.355054378509521484e-01,1.095229983329772949e-01,-1.751120388507843018e-01,-3.792499899864196777e-01,