5.980855822563171387e-01 -5.051259994506835938e-01 6.959610152989625931e-03 -1.169946789741516113e-01 4.509049057960510254e-01 -5.265141725540161133e-01
-6.218227744102478027e-01 7.462308406829833984e-01 -4.025049880146980286e-02 -2.063448131084442139e-01 9.916850924491882324e-02 -9.281434863805770874e-02
-1.087936609983444214e-01 9.443406760692596436e-02 4.460786581039428711e-01 1.533852815628051758e-01 -8.667613863945007324e-01 -2.031415998935699463e-01
4.734953343868255615e-01 -4.732263386249542236e-01 2.700995802879333496e-01 -1.277380138635635376e-01 -7.571890354156494141e-01 4.202669560909271240e-01
-1.072461485862731934e+00 1.221265316009521484e+00 4.935716092586517334e-01 -2.870033681392669678e-01 -3.196006119251251221e-01 7.585597038269042969e-02
-2.395927608013153076e-01 2.203869968652725220e-01 2.192108184099197388e-01 5.054046511650085449e-01 -7.308816071599721909e-03 -6.101580858230590820e-01
-2.557292282581329346e-01 3.213473260402679443e-01 -1.124002262949943542e-01 -1.780408769845962524e-01 4.724065363407135010e-01 -2.138681262731552124e-01
-1.056737899780273438e-01 -6.116926297545433044e-02 5.906633138656616211e-01 1.972526609897613525e-01 1.144680261611938477e+00 -1.783955335617065430e+00
6.457555294036865234e-02 -2.927278876304626465e-01 -1.181969165802001953e+00 -8.793641328811645508e-01 1.939461946487426758e+00 7.419507503509521484e-01
-3.928797543048858643e-01 3.334094285964965820e-01 4.910183548927307129e-01 -8.334602713584899902e-01 -5.535408258438110352e-01 6.263295412063598633e-01
-5.803382396697998047e-01 5.833650827407836914e-01 8.806250691413879395e-01 -1.028296500444412231e-01 -1.231788039207458496e+00 2.405118495225906372e-01
1.308829188346862793e+00 -1.194529891014099121e+00 -1.332652121782302856e-01 -2.174425572156906128e-01 2.299119681119918823e-01 9.606713801622390747e-02
3.896004259586334229e-01 -4.179932773113250732e-01 8.510647416114807129e-01 -1.206778407096862793e+00 -1.124632358551025391e+00 1.078625082969665527e+00
3.033417463302612305e-01 -1.982468366622924805e-01 3.504767119884490967e-01 2.907173633575439453e-01 3.950746953487396240e-01 -1.511714816093444824e+00
-1.396052390336990356e-01 -6.879732012748718262e-02 5.402351617813110352e-01 -3.533932566642761230e-01 1.374004334211349487e-01 -5.049159526824951172e-01
-7.898546457290649414e-01 8.010236024856567383e-01 -6.013899669051170349e-02 1.096317321062088013e-01 4.175982773303985596e-01 -2.219606786966323853e-01
-6.256657242774963379e-01 5.952653288841247559e-01 8.963930606842041016e-02 -5.897583365440368652e-01 6.787327527999877930e-01 -5.865567922592163086e-02
-3.673416376113891602e-01 5.059485435485839844e-01 7.051053047180175781e-01 1.945146173238754272e-01 -7.430227398872375488e-01 -1.399984061717987061e-01
9.113205596804618835e-03 7.070241123437881470e-02 1.038765907287597656e+00 -7.772585749626159668e-01 -1.577128022909164429e-01 -7.604921460151672363e-01
-4.220665693283081055e-01 4.763782024383544922e-01 1.363304018974304199e+00 -5.020046830177307129e-01 -2.579342126846313477e-01 -9.503194689750671387e-01
-4.685387313365936279e-01 3.025676310062408447e-01 -7.261547446250915527e-01 2.909126579761505127e-01 5.488643050193786621e-01 5.146824717521667480e-01
-7.113595008850097656e-01 5.868540406227111816e-01 -6.955695152282714844e-02 6.429970264434814453e-01 2.408581078052520752e-01 -6.392358541488647461e-01
-2.096790373325347900e-01 1.228348165750503540e-01 -6.910210847854614258e-01 5.447435975074768066e-01 9.335735440254211426e-01 -1.755470484495162964e-01
-1.056802645325660706e-01 5.570327863097190857e-03 -1.504105031490325928e-01 -5.923814177513122559e-01 3.347618281841278076e-01 1.314224004745483398e-01
-7.908350825309753418e-01 7.881336808204650879e-01 7.359015941619873047e-02 5.061182379722595215e-01 -4.053383767604827881e-01 -3.013083897531032562e-02
-2.444384098052978516e-01 4.399327337741851807e-01 5.554786920547485352e-01 1.364458680152893066e+00 -9.992853403091430664e-01 -7.153216600418090820e-01
5.256283655762672424e-02 -7.941510528326034546e-02 -4.143471121788024902e-01 -9.718909859657287598e-03 7.172404527664184570e-01 -3.747461438179016113e-01
-9.688234329223632812e-01 9.443572759628295898e-01 -4.553537964820861816e-01 4.023549258708953857e-01 5.535776615142822266e-01 -5.509735345840454102e-01
-5.105698704719543457e-01 5.327947735786437988e-01 5.937056988477706909e-02 -1.953163594007492065e-01 -2.753933891654014587e-02 2.712268233299255371e-01
9.239820241928100586e-01 -1.027019858360290527e+00 -4.590308070182800293e-01 5.419752597808837891e-01 8.849930018186569214e-03 -2.291470617055892944e-01
-8.234209567308425903e-02 -1.902302727103233337e-02 5.102344155311584473e-01 -2.148864269256591797e-01 -4.473128318786621094e-01 -8.378046154975891113e-01
-7.341557741165161133e-02 6.059413030743598938e-02 8.302699327468872070e-01 -1.040832638740539551e+00 8.406065404415130615e-02 -5.087004303932189941e-01
-1.176344871520996094e+00 1.161175012588500977e+00 -2.195371836423873901e-01 1.412159502506256104e-01 -1.439599227160215378e-02 -4.457287117838859558e-02
-4.947369098663330078e-01 3.890766799449920654e-01 8.481926470994949341e-02 -2.963742613792419434e-01 -6.033644825220108032e-02 4.922985136508941650e-01
-8.116911649703979492e-01 6.554289460182189941e-01 2.785478234291076660e-01 1.858544945716857910e-01 -3.903370350599288940e-02 -2.110360711812973022e-01
6.063079088926315308e-02 -1.408540159463882446e-01 6.040578484535217285e-01 -9.782148599624633789e-01 3.183802217245101929e-02 -1.061720013618469238e+00
2.491421550512313843e-01 -1.129838600754737854e-01 5.415966510772705078e-01 -2.863742709159851074e-01 -5.672861933708190918e-01 -3.880671560764312744e-01
5.673146843910217285e-01 -4.718023836612701416e-01 1.003569290041923523e-01 6.549432277679443359e-01 -1.126152873039245605e+00 4.929279983043670654e-01
-3.126228600740432739e-02 4.840664938092231750e-02 -4.911760985851287842e-02 8.917688727378845215e-01 -4.434831440448760986e-01 -5.743822455406188965e-01
9.331938028335571289e-01 -9.221241474151611328e-01 -2.870226837694644928e-02 -9.496340751647949219e-01 1.739108264446258545e-01 6.574871540069580078e-01
-1.213620007038116455e-01 3.865287452936172485e-02 -1.308829933404922485e-01 5.430067181587219238e-01 -3.459894359111785889e-01 2.050531655550003052e-02
-4.850226342678070068e-01 4.499140381813049316e-01 2.781971991062164307e-01 8.144535869359970093e-02 -1.817022264003753662e-01 -1.810087412595748901e-01
-3.569970726966857910e-01 4.693824052810668945e-01 8.719818592071533203e-01 -7.448748350143432617e-01 2.436838299036026001e-01 -5.728939175605773926e-01
1.072340607643127441e+00 -1.102666258811950684e+00 -1.457332849502563477e+00 9.433639645576477051e-01 3.769583702087402344e-01 3.791510760784149170e-01
3.650614023208618164e-01 -4.953861832618713379e-01 8.269695192575454712e-02 5.828649401664733887e-01 -9.786399006843566895e-01 -1.829718239605426788e-02
-2.954567670822143555e-01 3.694756031036376953e-01 -3.718746826052665710e-02 1.744010150432586670e-01 -4.230502247810363770e-01 1.839729249477386475e-01
1.218512728810310364e-01 -2.138621807098388672e-01 -3.028423786163330078e-01 8.081228733062744141e-01 4.982517361640930176e-01 -5.512896776199340820e-01
1.501165777444839478e-01 -3.513463307172060013e-03 7.419833540916442871e-01 -8.602365255355834961e-01 1.445612013339996338e-01 -6.389243006706237793e-01
-8.268728852272033691e-01 7.245190143585205078e-01 6.373438239097595215e-01 1.329350024461746216e-01 -5.205644965171813965e-01 -6.066433787345886230e-01
-1.329742651432752609e-02 3.055869601666927338e-02 7.585461735725402832e-01 6.395490467548370361e-02 -4.904045462608337402e-01 -8.470332026481628418e-01
-1.716297268867492676e-01 2.765315026044845581e-02 3.063355982303619385e-01 -5.470268726348876953e-01 -6.779036521911621094e-01 7.967171072959899902e-01
-2.342211082577705383e-02 1.046225652098655701e-01 1.730410307645797729e-01 4.016383588314056396e-01 -3.621215224266052246e-01 -7.969253063201904297e-01
2.298513650894165039e-01 -2.220840007066726685e-01 3.259604871273040771e-01 -1.636418998241424561e-01 -4.517035782337188721e-01 -1.145809516310691833e-01
-8.511603623628616333e-02 6.825473246863111854e-05 2.957047224044799805e-01 -1.076365858316421509e-01 3.145420551300048828e-01 -7.081747651100158691e-01
7.422152161598205566e-01 -6.558603644371032715e-01 -4.336059987545013428e-01 1.151544526219367981e-01 1.335531622171401978e-01 2.860051393508911133e-02
-7.262576222419738770e-01 7.119722962379455566e-01 -4.586496353149414062e-01 6.577767133712768555e-01 8.940084576606750488e-01 -7.069154381752014160e-01
5.734884142875671387e-01 -7.262527942657470703e-01 1.761704236268997192e-01 -2.658500075340270996e-01 -3.349675238132476807e-01 4.794722199440002441e-01
9.342296719551086426e-01 -8.576726913452148438e-01 -8.879151195287704468e-02 -2.568234205245971680e-01 1.067961573600769043e+00 -1.232175827026367188e+00
5.743346810340881348e-01 -5.387395024299621582e-01 8.349202573299407959e-02 -2.194246649742126465e-01 -1.182444021105766296e-01 -2.553852796554565430e-01
9.155089259147644043e-01 -8.857692480087280273e-01 4.067675769329071045e-01 -7.458190321922302246e-01 5.331775546073913574e-01 -5.898447632789611816e-01
7.592293620109558105e-01 -8.135188221931457520e-01 -4.654194712638854980e-01 1.675921529531478882e-01 6.746758222579956055e-01 -2.290832847356796265e-01
-3.817925155162811279e-01 1.665128767490386963e-01 4.260043799877166748e-02 -4.750561118125915527e-01 -1.087661385536193848e-01 1.103601574897766113e+00
5.450673699378967285e-01 -6.339216828346252441e-01 1.447942405939102173e-01 -9.255364537239074707e-02 -2.978830039501190186e-01 -1.975486874580383301e-01
-4.419978559017181396e-01 6.065348386764526367e-01 -2.477243840694427490e-01 -9.489323496818542480e-01 1.768993616104125977e+00 -9.459428191184997559e-01
